FANN_FLO_2.1
num_layers=3
learning_rate=0.700000
connection_rate=1.000000
network_type=0
learning_momentum=0.000000
training_algorithm=2
train_error_function=1
train_stop_function=1
cascade_output_change_fraction=0.010000
quickprop_decay=-0.000100
quickprop_mu=1.750000
rprop_increase_factor=1.200000
rprop_decrease_factor=0.500000
rprop_delta_min=0.000000
rprop_delta_max=50.000000
rprop_delta_zero=0.100000
cascade_output_stagnation_epochs=12
cascade_candidate_change_fraction=0.010000
cascade_candidate_stagnation_epochs=12
cascade_max_out_epochs=150
cascade_min_out_epochs=50
cascade_max_cand_epochs=150
cascade_min_cand_epochs=50
cascade_num_candidate_groups=2
bit_fail_limit=9.99999977648258209229e-03
cascade_candidate_limit=1.00000000000000000000e+03
cascade_weight_multiplier=4.00000005960464477539e-01
cascade_activation_functions_count=10
cascade_activation_functions=3 5 7 8 10 11 14 15 16 17 
cascade_activation_steepnesses_count=4
cascade_activation_steepnesses=2.50000000000000000000e-01 5.00000000000000000000e-01 7.50000000000000000000e-01 1.00000000000000000000e+00 
layer_sizes=55 21 2 
scale_included=0
neurons (num_inputs, activation_function, activation_steepness)=(0, 0, 0.00000000000000000000e+00) (0, 0, 0.00000000000000000000e+00) (0, 0, 0.00000000000000000000e+00) (0, 0, 0.00000000000000000000e+00) (0, 0, 0.00000000000000000000e+00) (0, 0, 0.00000000000000000000e+00) (0, 0, 0.00000000000000000000e+00) (0, 0, 0.00000000000000000000e+00) (0, 0, 0.00000000000000000000e+00) (0, 0, 0.00000000000000000000e+00) (0, 0, 0.00000000000000000000e+00) (0, 0, 0.00000000000000000000e+00) (0, 0, 0.00000000000000000000e+00) (0, 0, 0.00000000000000000000e+00) (0, 0, 0.00000000000000000000e+00) (0, 0, 0.00000000000000000000e+00) (0, 0, 0.00000000000000000000e+00) (0, 0, 0.00000000000000000000e+00) (0, 0, 0.00000000000000000000e+00) (0, 0, 0.00000000000000000000e+00) (0, 0, 0.00000000000000000000e+00) (0, 0, 0.00000000000000000000e+00) (0, 0, 0.00000000000000000000e+00) (0, 0, 0.00000000000000000000e+00) (0, 0, 0.00000000000000000000e+00) (0, 0, 0.00000000000000000000e+00) (0, 0, 0.00000000000000000000e+00) (0, 0, 0.00000000000000000000e+00) (0, 0, 0.00000000000000000000e+00) (0, 0, 0.00000000000000000000e+00) (0, 0, 0.00000000000000000000e+00) (0, 0, 0.00000000000000000000e+00) (0, 0, 0.00000000000000000000e+00) (0, 0, 0.00000000000000000000e+00) (0, 0, 0.00000000000000000000e+00) (0, 0, 0.00000000000000000000e+00) (0, 0, 0.00000000000000000000e+00) (0, 0, 0.00000000000000000000e+00) (0, 0, 0.00000000000000000000e+00) (0, 0, 0.00000000000000000000e+00) (0, 0, 0.00000000000000000000e+00) (0, 0, 0.00000000000000000000e+00) (0, 0, 0.00000000000000000000e+00) (0, 0, 0.00000000000000000000e+00) (0, 0, 0.00000000000000000000e+00) (0, 0, 0.00000000000000000000e+00) (0, 0, 0.00000000000000000000e+00) (0, 0, 0.00000000000000000000e+00) (0, 0, 0.00000000000000000000e+00) (0, 0, 0.00000000000000000000e+00) (0, 0, 0.00000000000000000000e+00) (0, 0, 0.00000000000000000000e+00) (0, 0, 0.00000000000000000000e+00) (0, 0, 0.00000000000000000000e+00) (0, 0, 0.00000000000000000000e+00) (55, 3, 1.00000000000000000000e+00) (55, 3, 1.00000000000000000000e+00) (55, 3, 1.00000000000000000000e+00) (55, 3, 1.00000000000000000000e+00) (55, 3, 1.00000000000000000000e+00) (55, 3, 1.00000000000000000000e+00) (55, 3, 1.00000000000000000000e+00) (55, 3, 1.00000000000000000000e+00) (55, 3, 1.00000000000000000000e+00) (55, 3, 1.00000000000000000000e+00) (55, 3, 1.00000000000000000000e+00) (55, 3, 1.00000000000000000000e+00) (55, 3, 1.00000000000000000000e+00) (55, 3, 1.00000000000000000000e+00) (55, 3, 1.00000000000000000000e+00) (55, 3, 1.00000000000000000000e+00) (55, 3, 1.00000000000000000000e+00) (55, 3, 1.00000000000000000000e+00) (55, 3, 1.00000000000000000000e+00) (55, 3, 1.00000000000000000000e+00) (0, 3, 1.00000000000000000000e+00) (21, 3, 1.00000000000000000000e+00) (0, 3, 1.00000000000000000000e+00) 
connections (connected_to_neuron, weight)=(0, -1.50000000000000000000e+03) (1, 1.49980603027343750000e+03) (2, -1.33747708797454833984e+00) (3, 1.48028857421875000000e+03) (4, 1.49965612792968750000e+03) (5, -1.50000000000000000000e+03) (6, 1.48619726562500000000e+03) (7, -1.49341186523437500000e+03) (8, -1.44944177246093750000e+03) (9, -1.50000000000000000000e+03) (10, -1.50000000000000000000e+03) (11, -1.50000000000000000000e+03) (12, 1.49986535644531250000e+03) (13, -1.50000000000000000000e+03) (14, -1.50000000000000000000e+03) (15, -1.50000000000000000000e+03) (16, 1.49985339355468750000e+03) (17, 1.48028552246093750000e+03) (18, 1.49989855957031250000e+03) (19, -1.50000000000000000000e+03) (20, -1.50000000000000000000e+03) (21, -9.08838012695312500000e+02) (22, -1.50000000000000000000e+03) (23, -1.50000000000000000000e+03) (24, -1.50000000000000000000e+03) (25, -1.50000000000000000000e+03) (26, -9.97259155273437500000e+02) (27, -1.50000000000000000000e+03) (28, -1.50000000000000000000e+03) (29, -1.50000000000000000000e+03) (30, -1.50000000000000000000e+03) (31, -1.50000000000000000000e+03) (32, -1.50000000000000000000e+03) (33, -1.50000000000000000000e+03) (34, -1.49987365722656250000e+03) (35, -1.50000000000000000000e+03) (36, -1.50000000000000000000e+03) (37, -1.50000000000000000000e+03) (38, -1.50000000000000000000e+03) (39, -1.50000000000000000000e+03) (40, -1.50000000000000000000e+03) (41, -1.50000000000000000000e+03) (42, -1.50000000000000000000e+03) (43, -1.50000000000000000000e+03) (44, -1.50000000000000000000e+03) (45, -1.50000000000000000000e+03) (46, -1.50000000000000000000e+03) (47, -1.50000000000000000000e+03) (48, -1.50000000000000000000e+03) (49, -1.50000000000000000000e+03) (50, -1.50000000000000000000e+03) (51, -1.50000000000000000000e+03) (52, -1.50000000000000000000e+03) (53, -1.50000000000000000000e+03) (54, -2.65200400352478027344e+00) (0, -1.50000000000000000000e+03) (1, 1.49980603027343750000e+03) (2, -1.33907186985015869141e+00) (3, 1.48028857421875000000e+03) (4, 1.49965612792968750000e+03) (5, -1.50000000000000000000e+03) (6, 1.48619726562500000000e+03) (7, -1.49341186523437500000e+03) (8, -1.44944177246093750000e+03) (9, -1.50000000000000000000e+03) (10, -1.50000000000000000000e+03) (11, -1.50000000000000000000e+03) (12, 1.49986535644531250000e+03) (13, -1.50000000000000000000e+03) (14, -1.50000000000000000000e+03) (15, -1.50000000000000000000e+03) (16, 1.49985339355468750000e+03) (17, 1.48028552246093750000e+03) (18, 1.49989855957031250000e+03) (19, -1.50000000000000000000e+03) (20, -1.50000000000000000000e+03) (21, -9.08838012695312500000e+02) (22, -1.50000000000000000000e+03) (23, -1.50000000000000000000e+03) (24, -1.50000000000000000000e+03) (25, -1.50000000000000000000e+03) (26, -9.97259155273437500000e+02) (27, -1.50000000000000000000e+03) (28, -1.50000000000000000000e+03) (29, -1.50000000000000000000e+03) (30, -1.50000000000000000000e+03) (31, -1.50000000000000000000e+03) (32, -1.50000000000000000000e+03) (33, -1.50000000000000000000e+03) (34, -1.49987365722656250000e+03) (35, -1.50000000000000000000e+03) (36, -1.50000000000000000000e+03) (37, -1.50000000000000000000e+03) (38, -1.50000000000000000000e+03) (39, -1.50000000000000000000e+03) (40, -1.50000000000000000000e+03) (41, -1.50000000000000000000e+03) (42, -1.50000000000000000000e+03) (43, -1.50000000000000000000e+03) (44, -1.50000000000000000000e+03) (45, -1.50000000000000000000e+03) (46, -1.50000000000000000000e+03) (47, -1.50000000000000000000e+03) (48, -1.50000000000000000000e+03) (49, -1.50000000000000000000e+03) (50, -1.50000000000000000000e+03) (51, -1.50000000000000000000e+03) (52, -1.50000000000000000000e+03) (53, -1.50000000000000000000e+03) (54, -2.66956305503845214844e+00) (0, -1.50000000000000000000e+03) (1, 1.49980603027343750000e+03) (2, -1.33489525318145751953e+00) (3, 1.48028857421875000000e+03) (4, 1.49965612792968750000e+03) (5, -1.50000000000000000000e+03) (6, 1.48619726562500000000e+03) (7, -1.49341186523437500000e+03) (8, -1.44944177246093750000e+03) (9, -1.50000000000000000000e+03) (10, -1.50000000000000000000e+03) (11, -1.50000000000000000000e+03) (12, 1.49986535644531250000e+03) (13, -1.50000000000000000000e+03) (14, -1.50000000000000000000e+03) (15, -1.50000000000000000000e+03) (16, 1.49985339355468750000e+03) (17, 1.48028552246093750000e+03) (18, 1.49989855957031250000e+03) (19, -1.50000000000000000000e+03) (20, -1.50000000000000000000e+03) (21, -9.08838012695312500000e+02) (22, -1.50000000000000000000e+03) (23, -1.50000000000000000000e+03) (24, -1.50000000000000000000e+03) (25, -1.50000000000000000000e+03) (26, -9.97259155273437500000e+02) (27, -1.50000000000000000000e+03) (28, -1.50000000000000000000e+03) (29, -1.50000000000000000000e+03) (30, -1.50000000000000000000e+03) (31, -1.50000000000000000000e+03) (32, -1.50000000000000000000e+03) (33, -1.50000000000000000000e+03) (34, -1.49987365722656250000e+03) (35, -1.50000000000000000000e+03) (36, -1.50000000000000000000e+03) (37, -1.50000000000000000000e+03) (38, -1.50000000000000000000e+03) (39, -1.50000000000000000000e+03) (40, -1.50000000000000000000e+03) (41, -1.50000000000000000000e+03) (42, -1.50000000000000000000e+03) (43, -1.50000000000000000000e+03) (44, -1.50000000000000000000e+03) (45, -1.50000000000000000000e+03) (46, -1.50000000000000000000e+03) (47, -1.50000000000000000000e+03) (48, -1.50000000000000000000e+03) (49, -1.50000000000000000000e+03) (50, -1.50000000000000000000e+03) (51, -1.50000000000000000000e+03) (52, -1.50000000000000000000e+03) (53, -1.50000000000000000000e+03) (54, -2.65698480606079101562e+00) (0, -1.50000000000000000000e+03) (1, 1.49980603027343750000e+03) (2, -1.33618795871734619141e+00) (3, 1.48028857421875000000e+03) (4, 1.49965612792968750000e+03) (5, -1.50000000000000000000e+03) (6, 1.48619726562500000000e+03) (7, -1.49341186523437500000e+03) (8, -1.44944177246093750000e+03) (9, -1.50000000000000000000e+03) (10, -1.50000000000000000000e+03) (11, -1.50000000000000000000e+03) (12, 1.49986535644531250000e+03) (13, -1.50000000000000000000e+03) (14, -1.50000000000000000000e+03) (15, -1.50000000000000000000e+03) (16, 1.49985339355468750000e+03) (17, 1.48028552246093750000e+03) (18, 1.49989855957031250000e+03) (19, -1.50000000000000000000e+03) (20, -1.50000000000000000000e+03) (21, -9.08838012695312500000e+02) (22, -1.50000000000000000000e+03) (23, -1.50000000000000000000e+03) (24, -1.50000000000000000000e+03) (25, -1.50000000000000000000e+03) (26, -9.97259155273437500000e+02) (27, -1.50000000000000000000e+03) (28, -1.50000000000000000000e+03) (29, -1.50000000000000000000e+03) (30, -1.50000000000000000000e+03) (31, -1.50000000000000000000e+03) (32, -1.50000000000000000000e+03) (33, -1.50000000000000000000e+03) (34, -1.49987365722656250000e+03) (35, -1.50000000000000000000e+03) (36, -1.50000000000000000000e+03) (37, -1.50000000000000000000e+03) (38, -1.50000000000000000000e+03) (39, -1.50000000000000000000e+03) (40, -1.50000000000000000000e+03) (41, -1.50000000000000000000e+03) (42, -1.50000000000000000000e+03) (43, -1.50000000000000000000e+03) (44, -1.50000000000000000000e+03) (45, -1.50000000000000000000e+03) (46, -1.50000000000000000000e+03) (47, -1.50000000000000000000e+03) (48, -1.50000000000000000000e+03) (49, -1.50000000000000000000e+03) (50, -1.50000000000000000000e+03) (51, -1.50000000000000000000e+03) (52, -1.50000000000000000000e+03) (53, -1.50000000000000000000e+03) (54, -2.66649866104125976562e+00) (0, -1.50000000000000000000e+03) (1, 1.49980603027343750000e+03) (2, -1.33433759212493896484e+00) (3, 1.48028857421875000000e+03) (4, 1.49965612792968750000e+03) (5, -1.50000000000000000000e+03) (6, 1.48619726562500000000e+03) (7, -1.49341186523437500000e+03) (8, -1.44944177246093750000e+03) (9, -1.50000000000000000000e+03) (10, -1.50000000000000000000e+03) (11, -1.50000000000000000000e+03) (12, 1.49986535644531250000e+03) (13, -1.50000000000000000000e+03) (14, -1.50000000000000000000e+03) (15, -1.50000000000000000000e+03) (16, 1.49985339355468750000e+03) (17, 1.48028552246093750000e+03) (18, 1.49989855957031250000e+03) (19, -1.50000000000000000000e+03) (20, -1.50000000000000000000e+03) (21, -9.08838012695312500000e+02) (22, -1.50000000000000000000e+03) (23, -1.50000000000000000000e+03) (24, -1.50000000000000000000e+03) (25, -1.50000000000000000000e+03) (26, -9.97259155273437500000e+02) (27, -1.50000000000000000000e+03) (28, -1.50000000000000000000e+03) (29, -1.50000000000000000000e+03) (30, -1.50000000000000000000e+03) (31, -1.50000000000000000000e+03) (32, -1.50000000000000000000e+03) (33, -1.50000000000000000000e+03) (34, -1.49987365722656250000e+03) (35, -1.50000000000000000000e+03) (36, -1.50000000000000000000e+03) (37, -1.50000000000000000000e+03) (38, -1.50000000000000000000e+03) (39, -1.50000000000000000000e+03) (40, -1.50000000000000000000e+03) (41, -1.50000000000000000000e+03) (42, -1.50000000000000000000e+03) (43, -1.50000000000000000000e+03) (44, -1.50000000000000000000e+03) (45, -1.50000000000000000000e+03) (46, -1.50000000000000000000e+03) (47, -1.50000000000000000000e+03) (48, -1.50000000000000000000e+03) (49, -1.50000000000000000000e+03) (50, -1.50000000000000000000e+03) (51, -1.50000000000000000000e+03) (52, -1.50000000000000000000e+03) (53, -1.50000000000000000000e+03) (54, -2.65766596794128417969e+00) (0, -1.50000000000000000000e+03) (1, 1.49980603027343750000e+03) (2, -1.34103024005889892578e+00) (3, 1.48028857421875000000e+03) (4, 1.49965612792968750000e+03) (5, -1.50000000000000000000e+03) (6, 1.48619726562500000000e+03) (7, -1.49341186523437500000e+03) (8, -1.44944177246093750000e+03) (9, -1.50000000000000000000e+03) (10, -1.50000000000000000000e+03) (11, -1.50000000000000000000e+03) (12, 1.49986535644531250000e+03) (13, -1.50000000000000000000e+03) (14, -1.50000000000000000000e+03) (15, -1.50000000000000000000e+03) (16, 1.49985339355468750000e+03) (17, 1.48028552246093750000e+03) (18, 1.49989855957031250000e+03) (19, -1.50000000000000000000e+03) (20, -1.50000000000000000000e+03) (21, -9.08838012695312500000e+02) (22, -1.50000000000000000000e+03) (23, -1.50000000000000000000e+03) (24, -1.50000000000000000000e+03) (25, -1.50000000000000000000e+03) (26, -9.97259155273437500000e+02) (27, -1.50000000000000000000e+03) (28, -1.50000000000000000000e+03) (29, -1.50000000000000000000e+03) (30, -1.50000000000000000000e+03) (31, -1.50000000000000000000e+03) (32, -1.50000000000000000000e+03) (33, -1.50000000000000000000e+03) (34, -1.49987365722656250000e+03) (35, -1.50000000000000000000e+03) (36, -1.50000000000000000000e+03) (37, -1.50000000000000000000e+03) (38, -1.50000000000000000000e+03) (39, -1.50000000000000000000e+03) (40, -1.50000000000000000000e+03) (41, -1.50000000000000000000e+03) (42, -1.50000000000000000000e+03) (43, -1.50000000000000000000e+03) (44, -1.50000000000000000000e+03) (45, -1.50000000000000000000e+03) (46, -1.50000000000000000000e+03) (47, -1.50000000000000000000e+03) (48, -1.50000000000000000000e+03) (49, -1.50000000000000000000e+03) (50, -1.50000000000000000000e+03) (51, -1.50000000000000000000e+03) (52, -1.50000000000000000000e+03) (53, -1.50000000000000000000e+03) (54, -2.65823984146118164062e+00) (0, -1.50000000000000000000e+03) (1, 1.49980603027343750000e+03) (2, -1.34264862537384033203e+00) (3, 1.48028857421875000000e+03) (4, 1.49965612792968750000e+03) (5, -1.50000000000000000000e+03) (6, 1.48619726562500000000e+03) (7, -1.49341186523437500000e+03) (8, -1.44944177246093750000e+03) (9, -1.50000000000000000000e+03) (10, -1.50000000000000000000e+03) (11, -1.50000000000000000000e+03) (12, 1.49986535644531250000e+03) (13, -1.50000000000000000000e+03) (14, -1.50000000000000000000e+03) (15, -1.50000000000000000000e+03) (16, 1.49985339355468750000e+03) (17, 1.48028552246093750000e+03) (18, 1.49989855957031250000e+03) (19, -1.50000000000000000000e+03) (20, -1.50000000000000000000e+03) (21, -9.08838012695312500000e+02) (22, -1.50000000000000000000e+03) (23, -1.50000000000000000000e+03) (24, -1.50000000000000000000e+03) (25, -1.50000000000000000000e+03) (26, -9.97259155273437500000e+02) (27, -1.50000000000000000000e+03) (28, -1.50000000000000000000e+03) (29, -1.50000000000000000000e+03) (30, -1.50000000000000000000e+03) (31, -1.50000000000000000000e+03) (32, -1.50000000000000000000e+03) (33, -1.50000000000000000000e+03) (34, -1.49987365722656250000e+03) (35, -1.50000000000000000000e+03) (36, -1.50000000000000000000e+03) (37, -1.50000000000000000000e+03) (38, -1.50000000000000000000e+03) (39, -1.50000000000000000000e+03) (40, -1.50000000000000000000e+03) (41, -1.50000000000000000000e+03) (42, -1.50000000000000000000e+03) (43, -1.50000000000000000000e+03) (44, -1.50000000000000000000e+03) (45, -1.50000000000000000000e+03) (46, -1.50000000000000000000e+03) (47, -1.50000000000000000000e+03) (48, -1.50000000000000000000e+03) (49, -1.50000000000000000000e+03) (50, -1.50000000000000000000e+03) (51, -1.50000000000000000000e+03) (52, -1.50000000000000000000e+03) (53, -1.50000000000000000000e+03) (54, -2.65834426879882812500e+00) (0, 2.65231102705001831055e-01) (1, 6.35700702667236328125e-01) (2, -1.61878336220979690552e-02) (3, 3.56615990400314331055e-01) (4, 1.26190304756164550781e+00) (5, 1.03534996509552001953e-01) (6, 6.31914675235748291016e-01) (7, 2.37435650825500488281e+00) (8, 6.85144513845443725586e-02) (9, 1.16238641738891601562e+00) (10, 8.48317146301269531250e-01) (11, 1.29369020462036132812e-01) (12, 2.23304343223571777344e+00) (13, -1.59116059541702270508e-01) (14, 1.16575084626674652100e-01) (15, 1.34356737136840820312e-01) (16, 3.84115099906921386719e-01) (17, 3.66815686225891113281e-01) (18, -1.82017814368009567261e-02) (19, -3.00633341073989868164e-01) (20, 4.76197510957717895508e-01) (21, 8.56067612767219543457e-02) (22, -8.87900292873382568359e-02) (23, -8.29003572463989257812e-01) (24, -1.35947442054748535156e+00) (25, 1.27838388085365295410e-01) (26, -2.44389128684997558594e+00) (27, 2.64257520437240600586e-01) (28, -1.08276736736297607422e+00) (29, 9.55651924014091491699e-02) (30, -4.50459122657775878906e-01) (31, -8.30099284648895263672e-01) (32, -1.99860155582427978516e-01) (33, -5.62903165817260742188e-01) (34, -1.99352407455444335938e+00) (35, -1.80443033576011657715e-01) (36, -1.13517850637435913086e-01) (37, -8.30613076686859130859e-01) (38, -1.11311227083206176758e-01) (39, -1.89820027351379394531e+00) (40, 1.91084355115890502930e-01) (41, -8.40909406542778015137e-02) (42, -1.78483098745346069336e-01) (43, -1.74380695819854736328e+00) (44, -3.92121046781539916992e-01) (45, -4.55700643360614776611e-02) (46, 3.58421057462692260742e-01) (47, 7.90726184844970703125e-01) (48, -1.52591392397880554199e-01) (49, 1.37736260890960693359e-01) (50, 5.50504267215728759766e-01) (51, 3.89455413818359375000e+00) (52, -2.02172338962554931641e-01) (53, 3.29294013977050781250e+00) (54, -1.03281870484352111816e-01) (0, -1.50000000000000000000e+03) (1, 1.49980603027343750000e+03) (2, -1.33802855014801025391e+00) (3, 1.48028857421875000000e+03) (4, 1.49965612792968750000e+03) (5, -1.50000000000000000000e+03) (6, 1.48619726562500000000e+03) (7, -1.49341186523437500000e+03) (8, -1.44944177246093750000e+03) (9, -1.50000000000000000000e+03) (10, -1.50000000000000000000e+03) (11, -1.50000000000000000000e+03) (12, 1.49986535644531250000e+03) (13, -1.50000000000000000000e+03) (14, -1.50000000000000000000e+03) (15, -1.50000000000000000000e+03) (16, 1.49985339355468750000e+03) (17, 1.48028552246093750000e+03) (18, 1.49989855957031250000e+03) (19, -1.50000000000000000000e+03) (20, -1.50000000000000000000e+03) (21, -9.08838012695312500000e+02) (22, -1.50000000000000000000e+03) (23, -1.50000000000000000000e+03) (24, -1.50000000000000000000e+03) (25, -1.50000000000000000000e+03) (26, -9.97259155273437500000e+02) (27, -1.50000000000000000000e+03) (28, -1.50000000000000000000e+03) (29, -1.50000000000000000000e+03) (30, -1.50000000000000000000e+03) (31, -1.50000000000000000000e+03) (32, -1.50000000000000000000e+03) (33, -1.50000000000000000000e+03) (34, -1.49987365722656250000e+03) (35, -1.50000000000000000000e+03) (36, -1.50000000000000000000e+03) (37, -1.50000000000000000000e+03) (38, -1.50000000000000000000e+03) (39, -1.50000000000000000000e+03) (40, -1.50000000000000000000e+03) (41, -1.50000000000000000000e+03) (42, -1.50000000000000000000e+03) (43, -1.50000000000000000000e+03) (44, -1.50000000000000000000e+03) (45, -1.50000000000000000000e+03) (46, -1.50000000000000000000e+03) (47, -1.50000000000000000000e+03) (48, -1.50000000000000000000e+03) (49, -1.50000000000000000000e+03) (50, -1.50000000000000000000e+03) (51, -1.50000000000000000000e+03) (52, -1.50000000000000000000e+03) (53, -1.50000000000000000000e+03) (54, -2.66871237754821777344e+00) (0, -1.50000000000000000000e+03) (1, 1.49980603027343750000e+03) (2, -1.33783447742462158203e+00) (3, 1.48028857421875000000e+03) (4, 1.49965612792968750000e+03) (5, -1.50000000000000000000e+03) (6, 1.48619726562500000000e+03) (7, -1.49341186523437500000e+03) (8, -1.44944177246093750000e+03) (9, -1.50000000000000000000e+03) (10, -1.50000000000000000000e+03) (11, -1.50000000000000000000e+03) (12, 1.49986535644531250000e+03) (13, -1.50000000000000000000e+03) (14, -1.50000000000000000000e+03) (15, -1.50000000000000000000e+03) (16, 1.49985339355468750000e+03) (17, 1.48028552246093750000e+03) (18, 1.49989855957031250000e+03) (19, -1.50000000000000000000e+03) (20, -1.50000000000000000000e+03) (21, -9.08838012695312500000e+02) (22, -1.50000000000000000000e+03) (23, -1.50000000000000000000e+03) (24, -1.50000000000000000000e+03) (25, -1.50000000000000000000e+03) (26, -9.97259155273437500000e+02) (27, -1.50000000000000000000e+03) (28, -1.50000000000000000000e+03) (29, -1.50000000000000000000e+03) (30, -1.50000000000000000000e+03) (31, -1.50000000000000000000e+03) (32, -1.50000000000000000000e+03) (33, -1.50000000000000000000e+03) (34, -1.49987365722656250000e+03) (35, -1.50000000000000000000e+03) (36, -1.50000000000000000000e+03) (37, -1.50000000000000000000e+03) (38, -1.50000000000000000000e+03) (39, -1.50000000000000000000e+03) (40, -1.50000000000000000000e+03) (41, -1.50000000000000000000e+03) (42, -1.50000000000000000000e+03) (43, -1.50000000000000000000e+03) (44, -1.50000000000000000000e+03) (45, -1.50000000000000000000e+03) (46, -1.50000000000000000000e+03) (47, -1.50000000000000000000e+03) (48, -1.50000000000000000000e+03) (49, -1.50000000000000000000e+03) (50, -1.50000000000000000000e+03) (51, -1.50000000000000000000e+03) (52, -1.50000000000000000000e+03) (53, -1.50000000000000000000e+03) (54, -2.65927386283874511719e+00) (0, -1.50000000000000000000e+03) (1, 1.49980603027343750000e+03) (2, -1.34232366085052490234e+00) (3, 1.48028857421875000000e+03) (4, 1.49965612792968750000e+03) (5, -1.50000000000000000000e+03) (6, 1.48619726562500000000e+03) (7, -1.49341186523437500000e+03) (8, -1.44944177246093750000e+03) (9, -1.50000000000000000000e+03) (10, -1.50000000000000000000e+03) (11, -1.50000000000000000000e+03) (12, 1.49986535644531250000e+03) (13, -1.50000000000000000000e+03) (14, -1.50000000000000000000e+03) (15, -1.50000000000000000000e+03) (16, 1.49985339355468750000e+03) (17, 1.48028552246093750000e+03) (18, 1.49989855957031250000e+03) (19, -1.50000000000000000000e+03) (20, -1.50000000000000000000e+03) (21, -9.08838012695312500000e+02) (22, -1.50000000000000000000e+03) (23, -1.50000000000000000000e+03) (24, -1.50000000000000000000e+03) (25, -1.50000000000000000000e+03) (26, -9.97259155273437500000e+02) (27, -1.50000000000000000000e+03) (28, -1.50000000000000000000e+03) (29, -1.50000000000000000000e+03) (30, -1.50000000000000000000e+03) (31, -1.50000000000000000000e+03) (32, -1.50000000000000000000e+03) (33, -1.50000000000000000000e+03) (34, -1.49987365722656250000e+03) (35, -1.50000000000000000000e+03) (36, -1.50000000000000000000e+03) (37, -1.50000000000000000000e+03) (38, -1.50000000000000000000e+03) (39, -1.50000000000000000000e+03) (40, -1.50000000000000000000e+03) (41, -1.50000000000000000000e+03) (42, -1.50000000000000000000e+03) (43, -1.50000000000000000000e+03) (44, -1.50000000000000000000e+03) (45, -1.50000000000000000000e+03) (46, -1.50000000000000000000e+03) (47, -1.50000000000000000000e+03) (48, -1.50000000000000000000e+03) (49, -1.50000000000000000000e+03) (50, -1.50000000000000000000e+03) (51, -1.50000000000000000000e+03) (52, -1.50000000000000000000e+03) (53, -1.50000000000000000000e+03) (54, -2.66881871223449707031e+00) (0, -1.50000000000000000000e+03) (1, 1.49980603027343750000e+03) (2, -1.34046399593353271484e+00) (3, 1.48028857421875000000e+03) (4, 1.49965612792968750000e+03) (5, -1.50000000000000000000e+03) (6, 1.48619726562500000000e+03) (7, -1.49341186523437500000e+03) (8, -1.44944177246093750000e+03) (9, -1.50000000000000000000e+03) (10, -1.50000000000000000000e+03) (11, -1.50000000000000000000e+03) (12, 1.49986535644531250000e+03) (13, -1.50000000000000000000e+03) (14, -1.50000000000000000000e+03) (15, -1.50000000000000000000e+03) (16, 1.49985339355468750000e+03) (17, 1.48028552246093750000e+03) (18, 1.49989855957031250000e+03) (19, -1.50000000000000000000e+03) (20, -1.50000000000000000000e+03) (21, -9.08838012695312500000e+02) (22, -1.50000000000000000000e+03) (23, -1.50000000000000000000e+03) (24, -1.50000000000000000000e+03) (25, -1.50000000000000000000e+03) (26, -9.97259155273437500000e+02) (27, -1.50000000000000000000e+03) (28, -1.50000000000000000000e+03) (29, -1.50000000000000000000e+03) (30, -1.50000000000000000000e+03) (31, -1.50000000000000000000e+03) (32, -1.50000000000000000000e+03) (33, -1.50000000000000000000e+03) (34, -1.49987365722656250000e+03) (35, -1.50000000000000000000e+03) (36, -1.50000000000000000000e+03) (37, -1.50000000000000000000e+03) (38, -1.50000000000000000000e+03) (39, -1.50000000000000000000e+03) (40, -1.50000000000000000000e+03) (41, -1.50000000000000000000e+03) (42, -1.50000000000000000000e+03) (43, -1.50000000000000000000e+03) (44, -1.50000000000000000000e+03) (45, -1.50000000000000000000e+03) (46, -1.50000000000000000000e+03) (47, -1.50000000000000000000e+03) (48, -1.50000000000000000000e+03) (49, -1.50000000000000000000e+03) (50, -1.50000000000000000000e+03) (51, -1.50000000000000000000e+03) (52, -1.50000000000000000000e+03) (53, -1.50000000000000000000e+03) (54, -2.65423727035522460938e+00) (0, -1.50000000000000000000e+03) (1, 1.49980603027343750000e+03) (2, -1.33618676662445068359e+00) (3, 1.48028857421875000000e+03) (4, 1.49965612792968750000e+03) (5, -1.50000000000000000000e+03) (6, 1.48619726562500000000e+03) (7, -1.49341186523437500000e+03) (8, -1.44944177246093750000e+03) (9, -1.50000000000000000000e+03) (10, -1.50000000000000000000e+03) (11, -1.50000000000000000000e+03) (12, 1.49986535644531250000e+03) (13, -1.50000000000000000000e+03) (14, -1.50000000000000000000e+03) (15, -1.50000000000000000000e+03) (16, 1.49985339355468750000e+03) (17, 1.48028552246093750000e+03) (18, 1.49989855957031250000e+03) (19, -1.50000000000000000000e+03) (20, -1.50000000000000000000e+03) (21, -9.08838012695312500000e+02) (22, -1.50000000000000000000e+03) (23, -1.50000000000000000000e+03) (24, -1.50000000000000000000e+03) (25, -1.50000000000000000000e+03) (26, -9.97259155273437500000e+02) (27, -1.50000000000000000000e+03) (28, -1.50000000000000000000e+03) (29, -1.50000000000000000000e+03) (30, -1.50000000000000000000e+03) (31, -1.50000000000000000000e+03) (32, -1.50000000000000000000e+03) (33, -1.50000000000000000000e+03) (34, -1.49987365722656250000e+03) (35, -1.50000000000000000000e+03) (36, -1.50000000000000000000e+03) (37, -1.50000000000000000000e+03) (38, -1.50000000000000000000e+03) (39, -1.50000000000000000000e+03) (40, -1.50000000000000000000e+03) (41, -1.50000000000000000000e+03) (42, -1.50000000000000000000e+03) (43, -1.50000000000000000000e+03) (44, -1.50000000000000000000e+03) (45, -1.50000000000000000000e+03) (46, -1.50000000000000000000e+03) (47, -1.50000000000000000000e+03) (48, -1.50000000000000000000e+03) (49, -1.50000000000000000000e+03) (50, -1.50000000000000000000e+03) (51, -1.50000000000000000000e+03) (52, -1.50000000000000000000e+03) (53, -1.50000000000000000000e+03) (54, -2.67001128196716308594e+00) (0, -1.50000000000000000000e+03) (1, 1.49980603027343750000e+03) (2, -1.33424866199493408203e+00) (3, 1.48028857421875000000e+03) (4, 1.49965612792968750000e+03) (5, -1.50000000000000000000e+03) (6, 1.48619726562500000000e+03) (7, -1.49341186523437500000e+03) (8, -1.44944177246093750000e+03) (9, -1.50000000000000000000e+03) (10, -1.50000000000000000000e+03) (11, -1.50000000000000000000e+03) (12, 1.49986535644531250000e+03) (13, -1.50000000000000000000e+03) (14, -1.50000000000000000000e+03) (15, -1.50000000000000000000e+03) (16, 1.49985339355468750000e+03) (17, 1.48028552246093750000e+03) (18, 1.49989855957031250000e+03) (19, -1.50000000000000000000e+03) (20, -1.50000000000000000000e+03) (21, -9.08838012695312500000e+02) (22, -1.50000000000000000000e+03) (23, -1.50000000000000000000e+03) (24, -1.50000000000000000000e+03) (25, -1.50000000000000000000e+03) (26, -9.97259155273437500000e+02) (27, -1.50000000000000000000e+03) (28, -1.50000000000000000000e+03) (29, -1.50000000000000000000e+03) (30, -1.50000000000000000000e+03) (31, -1.50000000000000000000e+03) (32, -1.50000000000000000000e+03) (33, -1.50000000000000000000e+03) (34, -1.49987365722656250000e+03) (35, -1.50000000000000000000e+03) (36, -1.50000000000000000000e+03) (37, -1.50000000000000000000e+03) (38, -1.50000000000000000000e+03) (39, -1.50000000000000000000e+03) (40, -1.50000000000000000000e+03) (41, -1.50000000000000000000e+03) (42, -1.50000000000000000000e+03) (43, -1.50000000000000000000e+03) (44, -1.50000000000000000000e+03) (45, -1.50000000000000000000e+03) (46, -1.50000000000000000000e+03) (47, -1.50000000000000000000e+03) (48, -1.50000000000000000000e+03) (49, -1.50000000000000000000e+03) (50, -1.50000000000000000000e+03) (51, -1.50000000000000000000e+03) (52, -1.50000000000000000000e+03) (53, -1.50000000000000000000e+03) (54, -2.66821932792663574219e+00) (0, -1.50000000000000000000e+03) (1, 1.49980603027343750000e+03) (2, -1.34405910968780517578e+00) (3, 1.48028857421875000000e+03) (4, 1.49965612792968750000e+03) (5, -1.50000000000000000000e+03) (6, 1.48619726562500000000e+03) (7, -1.49341186523437500000e+03) (8, -1.44944177246093750000e+03) (9, -1.50000000000000000000e+03) (10, -1.50000000000000000000e+03) (11, -1.50000000000000000000e+03) (12, 1.49986535644531250000e+03) (13, -1.50000000000000000000e+03) (14, -1.50000000000000000000e+03) (15, -1.50000000000000000000e+03) (16, 1.49985339355468750000e+03) (17, 1.48028552246093750000e+03) (18, 1.49989855957031250000e+03) (19, -1.50000000000000000000e+03) (20, -1.50000000000000000000e+03) (21, -9.08838012695312500000e+02) (22, -1.50000000000000000000e+03) (23, -1.50000000000000000000e+03) (24, -1.50000000000000000000e+03) (25, -1.50000000000000000000e+03) (26, -9.97259155273437500000e+02) (27, -1.50000000000000000000e+03) (28, -1.50000000000000000000e+03) (29, -1.50000000000000000000e+03) (30, -1.50000000000000000000e+03) (31, -1.50000000000000000000e+03) (32, -1.50000000000000000000e+03) (33, -1.50000000000000000000e+03) (34, -1.49987365722656250000e+03) (35, -1.50000000000000000000e+03) (36, -1.50000000000000000000e+03) (37, -1.50000000000000000000e+03) (38, -1.50000000000000000000e+03) (39, -1.50000000000000000000e+03) (40, -1.50000000000000000000e+03) (41, -1.50000000000000000000e+03) (42, -1.50000000000000000000e+03) (43, -1.50000000000000000000e+03) (44, -1.50000000000000000000e+03) (45, -1.50000000000000000000e+03) (46, -1.50000000000000000000e+03) (47, -1.50000000000000000000e+03) (48, -1.50000000000000000000e+03) (49, -1.50000000000000000000e+03) (50, -1.50000000000000000000e+03) (51, -1.50000000000000000000e+03) (52, -1.50000000000000000000e+03) (53, -1.50000000000000000000e+03) (54, -2.65553975105285644531e+00) (0, -1.50000000000000000000e+03) (1, 1.49980603027343750000e+03) (2, -1.34276854991912841797e+00) (3, 1.48028857421875000000e+03) (4, 1.49965612792968750000e+03) (5, -1.50000000000000000000e+03) (6, 1.48619726562500000000e+03) (7, -1.49341186523437500000e+03) (8, -1.44944177246093750000e+03) (9, -1.50000000000000000000e+03) (10, -1.50000000000000000000e+03) (11, -1.50000000000000000000e+03) (12, 1.49986535644531250000e+03) (13, -1.50000000000000000000e+03) (14, -1.50000000000000000000e+03) (15, -1.50000000000000000000e+03) (16, 1.49985339355468750000e+03) (17, 1.48028552246093750000e+03) (18, 1.49989855957031250000e+03) (19, -1.50000000000000000000e+03) (20, -1.50000000000000000000e+03) (21, -9.08838012695312500000e+02) (22, -1.50000000000000000000e+03) (23, -1.50000000000000000000e+03) (24, -1.50000000000000000000e+03) (25, -1.50000000000000000000e+03) (26, -9.97259155273437500000e+02) (27, -1.50000000000000000000e+03) (28, -1.50000000000000000000e+03) (29, -1.50000000000000000000e+03) (30, -1.50000000000000000000e+03) (31, -1.50000000000000000000e+03) (32, -1.50000000000000000000e+03) (33, -1.50000000000000000000e+03) (34, -1.49987365722656250000e+03) (35, -1.50000000000000000000e+03) (36, -1.50000000000000000000e+03) (37, -1.50000000000000000000e+03) (38, -1.50000000000000000000e+03) (39, -1.50000000000000000000e+03) (40, -1.50000000000000000000e+03) (41, -1.50000000000000000000e+03) (42, -1.50000000000000000000e+03) (43, -1.50000000000000000000e+03) (44, -1.50000000000000000000e+03) (45, -1.50000000000000000000e+03) (46, -1.50000000000000000000e+03) (47, -1.50000000000000000000e+03) (48, -1.50000000000000000000e+03) (49, -1.50000000000000000000e+03) (50, -1.50000000000000000000e+03) (51, -1.50000000000000000000e+03) (52, -1.50000000000000000000e+03) (53, -1.50000000000000000000e+03) (54, -2.66063809394836425781e+00) (0, -1.50000000000000000000e+03) (1, 1.49980603027343750000e+03) (2, -1.34121644496917724609e+00) (3, 1.48028857421875000000e+03) (4, 1.49965612792968750000e+03) (5, -1.50000000000000000000e+03) (6, 1.48619726562500000000e+03) (7, -1.49341186523437500000e+03) (8, -1.44944177246093750000e+03) (9, -1.50000000000000000000e+03) (10, -1.50000000000000000000e+03) (11, -1.50000000000000000000e+03) (12, 1.49986535644531250000e+03) (13, -1.50000000000000000000e+03) (14, -1.50000000000000000000e+03) (15, -1.50000000000000000000e+03) (16, 1.49985339355468750000e+03) (17, 1.48028552246093750000e+03) (18, 1.49989855957031250000e+03) (19, -1.50000000000000000000e+03) (20, -1.50000000000000000000e+03) (21, -9.08838012695312500000e+02) (22, -1.50000000000000000000e+03) (23, -1.50000000000000000000e+03) (24, -1.50000000000000000000e+03) (25, -1.50000000000000000000e+03) (26, -9.97259155273437500000e+02) (27, -1.50000000000000000000e+03) (28, -1.50000000000000000000e+03) (29, -1.50000000000000000000e+03) (30, -1.50000000000000000000e+03) (31, -1.50000000000000000000e+03) (32, -1.50000000000000000000e+03) (33, -1.50000000000000000000e+03) (34, -1.49987365722656250000e+03) (35, -1.50000000000000000000e+03) (36, -1.50000000000000000000e+03) (37, -1.50000000000000000000e+03) (38, -1.50000000000000000000e+03) (39, -1.50000000000000000000e+03) (40, -1.50000000000000000000e+03) (41, -1.50000000000000000000e+03) (42, -1.50000000000000000000e+03) (43, -1.50000000000000000000e+03) (44, -1.50000000000000000000e+03) (45, -1.50000000000000000000e+03) (46, -1.50000000000000000000e+03) (47, -1.50000000000000000000e+03) (48, -1.50000000000000000000e+03) (49, -1.50000000000000000000e+03) (50, -1.50000000000000000000e+03) (51, -1.50000000000000000000e+03) (52, -1.50000000000000000000e+03) (53, -1.50000000000000000000e+03) (54, -2.66230130195617675781e+00) (0, -1.50000000000000000000e+03) (1, 1.49980603027343750000e+03) (2, -1.34074294567108154297e+00) (3, 1.48028857421875000000e+03) (4, 1.49965612792968750000e+03) (5, -1.50000000000000000000e+03) (6, 1.48619726562500000000e+03) (7, -1.49341186523437500000e+03) (8, -1.44944177246093750000e+03) (9, -1.50000000000000000000e+03) (10, -1.50000000000000000000e+03) (11, -1.50000000000000000000e+03) (12, 1.49986535644531250000e+03) (13, -1.50000000000000000000e+03) (14, -1.50000000000000000000e+03) (15, -1.50000000000000000000e+03) (16, 1.49985339355468750000e+03) (17, 1.48028552246093750000e+03) (18, 1.49989855957031250000e+03) (19, -1.50000000000000000000e+03) (20, -1.50000000000000000000e+03) (21, -9.08838012695312500000e+02) (22, -1.50000000000000000000e+03) (23, -1.50000000000000000000e+03) (24, -1.50000000000000000000e+03) (25, -1.50000000000000000000e+03) (26, -9.97259155273437500000e+02) (27, -1.50000000000000000000e+03) (28, -1.50000000000000000000e+03) (29, -1.50000000000000000000e+03) (30, -1.50000000000000000000e+03) (31, -1.50000000000000000000e+03) (32, -1.50000000000000000000e+03) (33, -1.50000000000000000000e+03) (34, -1.49987365722656250000e+03) (35, -1.50000000000000000000e+03) (36, -1.50000000000000000000e+03) (37, -1.50000000000000000000e+03) (38, -1.50000000000000000000e+03) (39, -1.50000000000000000000e+03) (40, -1.50000000000000000000e+03) (41, -1.50000000000000000000e+03) (42, -1.50000000000000000000e+03) (43, -1.50000000000000000000e+03) (44, -1.50000000000000000000e+03) (45, -1.50000000000000000000e+03) (46, -1.50000000000000000000e+03) (47, -1.50000000000000000000e+03) (48, -1.50000000000000000000e+03) (49, -1.50000000000000000000e+03) (50, -1.50000000000000000000e+03) (51, -1.50000000000000000000e+03) (52, -1.50000000000000000000e+03) (53, -1.50000000000000000000e+03) (54, -2.65410995483398437500e+00) (0, -1.50000000000000000000e+03) (1, 1.49980603027343750000e+03) (2, -1.34222662448883056641e+00) (3, 1.48028857421875000000e+03) (4, 1.49965612792968750000e+03) (5, -1.50000000000000000000e+03) (6, 1.48619726562500000000e+03) (7, -1.49341186523437500000e+03) (8, -1.44944177246093750000e+03) (9, -1.50000000000000000000e+03) (10, -1.50000000000000000000e+03) (11, -1.50000000000000000000e+03) (12, 1.49986535644531250000e+03) (13, -1.50000000000000000000e+03) (14, -1.50000000000000000000e+03) (15, -1.50000000000000000000e+03) (16, 1.49985339355468750000e+03) (17, 1.48028552246093750000e+03) (18, 1.49989855957031250000e+03) (19, -1.50000000000000000000e+03) (20, -1.50000000000000000000e+03) (21, -9.08838012695312500000e+02) (22, -1.50000000000000000000e+03) (23, -1.50000000000000000000e+03) (24, -1.50000000000000000000e+03) (25, -1.50000000000000000000e+03) (26, -9.97259155273437500000e+02) (27, -1.50000000000000000000e+03) (28, -1.50000000000000000000e+03) (29, -1.50000000000000000000e+03) (30, -1.50000000000000000000e+03) (31, -1.50000000000000000000e+03) (32, -1.50000000000000000000e+03) (33, -1.50000000000000000000e+03) (34, -1.49987365722656250000e+03) (35, -1.50000000000000000000e+03) (36, -1.50000000000000000000e+03) (37, -1.50000000000000000000e+03) (38, -1.50000000000000000000e+03) (39, -1.50000000000000000000e+03) (40, -1.50000000000000000000e+03) (41, -1.50000000000000000000e+03) (42, -1.50000000000000000000e+03) (43, -1.50000000000000000000e+03) (44, -1.50000000000000000000e+03) (45, -1.50000000000000000000e+03) (46, -1.50000000000000000000e+03) (47, -1.50000000000000000000e+03) (48, -1.50000000000000000000e+03) (49, -1.50000000000000000000e+03) (50, -1.50000000000000000000e+03) (51, -1.50000000000000000000e+03) (52, -1.50000000000000000000e+03) (53, -1.50000000000000000000e+03) (54, -2.66095972061157226562e+00) (0, -1.50000000000000000000e+03) (1, 1.49980603027343750000e+03) (2, -1.34253537654876708984e+00) (3, 1.48028857421875000000e+03) (4, 1.49965612792968750000e+03) (5, -1.50000000000000000000e+03) (6, 1.48619726562500000000e+03) (7, -1.49341186523437500000e+03) (8, -1.44944177246093750000e+03) (9, -1.50000000000000000000e+03) (10, -1.50000000000000000000e+03) (11, -1.50000000000000000000e+03) (12, 1.49986535644531250000e+03) (13, -1.50000000000000000000e+03) (14, -1.50000000000000000000e+03) (15, -1.50000000000000000000e+03) (16, 1.49985339355468750000e+03) (17, 1.48028552246093750000e+03) (18, 1.49989855957031250000e+03) (19, -1.50000000000000000000e+03) (20, -1.50000000000000000000e+03) (21, -9.08838012695312500000e+02) (22, -1.50000000000000000000e+03) (23, -1.50000000000000000000e+03) (24, -1.50000000000000000000e+03) (25, -1.50000000000000000000e+03) (26, -9.97259155273437500000e+02) (27, -1.50000000000000000000e+03) (28, -1.50000000000000000000e+03) (29, -1.50000000000000000000e+03) (30, -1.50000000000000000000e+03) (31, -1.50000000000000000000e+03) (32, -1.50000000000000000000e+03) (33, -1.50000000000000000000e+03) (34, -1.49987365722656250000e+03) (35, -1.50000000000000000000e+03) (36, -1.50000000000000000000e+03) (37, -1.50000000000000000000e+03) (38, -1.50000000000000000000e+03) (39, -1.50000000000000000000e+03) (40, -1.50000000000000000000e+03) (41, -1.50000000000000000000e+03) (42, -1.50000000000000000000e+03) (43, -1.50000000000000000000e+03) (44, -1.50000000000000000000e+03) (45, -1.50000000000000000000e+03) (46, -1.50000000000000000000e+03) (47, -1.50000000000000000000e+03) (48, -1.50000000000000000000e+03) (49, -1.50000000000000000000e+03) (50, -1.50000000000000000000e+03) (51, -1.50000000000000000000e+03) (52, -1.50000000000000000000e+03) (53, -1.50000000000000000000e+03) (54, -2.65830779075622558594e+00) (55, 1.50000000000000000000e+03) (56, 1.50000000000000000000e+03) (57, 1.50000000000000000000e+03) (58, 1.50000000000000000000e+03) (59, 1.50000000000000000000e+03) (60, 1.50000000000000000000e+03) (61, 1.50000000000000000000e+03) (62, 5.55182123184204101562e+00) (63, 1.50000000000000000000e+03) (64, 1.50000000000000000000e+03) (65, 1.50000000000000000000e+03) (66, 1.50000000000000000000e+03) (67, 1.50000000000000000000e+03) (68, 1.50000000000000000000e+03) (69, 1.50000000000000000000e+03) (70, 1.50000000000000000000e+03) (71, 1.50000000000000000000e+03) (72, 1.50000000000000000000e+03) (73, 1.50000000000000000000e+03) (74, 1.50000000000000000000e+03) (75, -2.27224397659301757812e+00) 
