FANN_FLO_2.1
num_layers=3
learning_rate=0.700000
connection_rate=1.000000
network_type=0
learning_momentum=0.000000
training_algorithm=2
train_error_function=1
train_stop_function=1
cascade_output_change_fraction=0.010000
quickprop_decay=-0.000100
quickprop_mu=1.750000
rprop_increase_factor=1.200000
rprop_decrease_factor=0.500000
rprop_delta_min=0.000000
rprop_delta_max=50.000000
rprop_delta_zero=0.100000
cascade_output_stagnation_epochs=12
cascade_candidate_change_fraction=0.010000
cascade_candidate_stagnation_epochs=12
cascade_max_out_epochs=150
cascade_min_out_epochs=50
cascade_max_cand_epochs=150
cascade_min_cand_epochs=50
cascade_num_candidate_groups=2
bit_fail_limit=9.99999977648258209229e-03
cascade_candidate_limit=1.00000000000000000000e+03
cascade_weight_multiplier=4.00000005960464477539e-01
cascade_activation_functions_count=10
cascade_activation_functions=3 5 7 8 10 11 14 15 16 17 
cascade_activation_steepnesses_count=4
cascade_activation_steepnesses=2.50000000000000000000e-01 5.00000000000000000000e-01 7.50000000000000000000e-01 1.00000000000000000000e+00 
layer_sizes=53 21 2 
scale_included=0
neurons (num_inputs, activation_function, activation_steepness)=(0, 0, 0.00000000000000000000e+00) (0, 0, 0.00000000000000000000e+00) (0, 0, 0.00000000000000000000e+00) (0, 0, 0.00000000000000000000e+00) (0, 0, 0.00000000000000000000e+00) (0, 0, 0.00000000000000000000e+00) (0, 0, 0.00000000000000000000e+00) (0, 0, 0.00000000000000000000e+00) (0, 0, 0.00000000000000000000e+00) (0, 0, 0.00000000000000000000e+00) (0, 0, 0.00000000000000000000e+00) (0, 0, 0.00000000000000000000e+00) (0, 0, 0.00000000000000000000e+00) (0, 0, 0.00000000000000000000e+00) (0, 0, 0.00000000000000000000e+00) (0, 0, 0.00000000000000000000e+00) (0, 0, 0.00000000000000000000e+00) (0, 0, 0.00000000000000000000e+00) (0, 0, 0.00000000000000000000e+00) (0, 0, 0.00000000000000000000e+00) (0, 0, 0.00000000000000000000e+00) (0, 0, 0.00000000000000000000e+00) (0, 0, 0.00000000000000000000e+00) (0, 0, 0.00000000000000000000e+00) (0, 0, 0.00000000000000000000e+00) (0, 0, 0.00000000000000000000e+00) (0, 0, 0.00000000000000000000e+00) (0, 0, 0.00000000000000000000e+00) (0, 0, 0.00000000000000000000e+00) (0, 0, 0.00000000000000000000e+00) (0, 0, 0.00000000000000000000e+00) (0, 0, 0.00000000000000000000e+00) (0, 0, 0.00000000000000000000e+00) (0, 0, 0.00000000000000000000e+00) (0, 0, 0.00000000000000000000e+00) (0, 0, 0.00000000000000000000e+00) (0, 0, 0.00000000000000000000e+00) (0, 0, 0.00000000000000000000e+00) (0, 0, 0.00000000000000000000e+00) (0, 0, 0.00000000000000000000e+00) (0, 0, 0.00000000000000000000e+00) (0, 0, 0.00000000000000000000e+00) (0, 0, 0.00000000000000000000e+00) (0, 0, 0.00000000000000000000e+00) (0, 0, 0.00000000000000000000e+00) (0, 0, 0.00000000000000000000e+00) (0, 0, 0.00000000000000000000e+00) (0, 0, 0.00000000000000000000e+00) (0, 0, 0.00000000000000000000e+00) (0, 0, 0.00000000000000000000e+00) (0, 0, 0.00000000000000000000e+00) (0, 0, 0.00000000000000000000e+00) (0, 0, 0.00000000000000000000e+00) (53, 3, 1.00000000000000000000e+00) (53, 3, 1.00000000000000000000e+00) (53, 3, 1.00000000000000000000e+00) (53, 3, 1.00000000000000000000e+00) (53, 3, 1.00000000000000000000e+00) (53, 3, 1.00000000000000000000e+00) (53, 3, 1.00000000000000000000e+00) (53, 3, 1.00000000000000000000e+00) (53, 3, 1.00000000000000000000e+00) (53, 3, 1.00000000000000000000e+00) (53, 3, 1.00000000000000000000e+00) (53, 3, 1.00000000000000000000e+00) (53, 3, 1.00000000000000000000e+00) (53, 3, 1.00000000000000000000e+00) (53, 3, 1.00000000000000000000e+00) (53, 3, 1.00000000000000000000e+00) (53, 3, 1.00000000000000000000e+00) (53, 3, 1.00000000000000000000e+00) (53, 3, 1.00000000000000000000e+00) (53, 3, 1.00000000000000000000e+00) (0, 3, 1.00000000000000000000e+00) (21, 3, 1.00000000000000000000e+00) (0, 3, 1.00000000000000000000e+00) 
connections (connected_to_neuron, weight)=(0, 1.49932678222656250000e+03) (1, -4.18267242431640625000e+02) (2, 1.50000000000000000000e+03) (3, 1.49881811523437500000e+03) (4, -1.96856719970703125000e+02) (5, 1.49916821289062500000e+03) (6, 1.50000000000000000000e+03) (7, -1.49949365234375000000e+03) (8, 1.50000000000000000000e+03) (9, 1.50000000000000000000e+03) (10, 1.45897900390625000000e+03) (11, 1.49932678222656250000e+03) (12, 1.50000000000000000000e+03) (13, 1.08538769531250000000e+03) (14, 1.49844824218750000000e+03) (15, 1.50000000000000000000e+03) (16, 1.50000000000000000000e+03) (17, 1.50000000000000000000e+03) (18, -1.50000000000000000000e+03) (19, 1.50000000000000000000e+03) (20, -2.01673202514648437500e+02) (21, -1.50000000000000000000e+03) (22, 1.50000000000000000000e+03) (23, 1.49916821289062500000e+03) (24, 1.50000000000000000000e+03) (25, 1.50000000000000000000e+03) (26, -1.50000000000000000000e+03) (27, 3.55651397705078125000e+02) (28, -1.50000000000000000000e+03) (29, -1.00157684326171875000e+03) (30, -1.08098742675781250000e+03) (31, -1.18820434570312500000e+03) (32, -1.50000000000000000000e+03) (33, 1.50000000000000000000e+03) (34, -1.50000000000000000000e+03) (35, -1.50000000000000000000e+03) (36, -1.50000000000000000000e+03) (37, -1.50000000000000000000e+03) (38, 1.49954223632812500000e+03) (39, -1.50000000000000000000e+03) (40, -1.50000000000000000000e+03) (41, -1.50000000000000000000e+03) (42, -1.50000000000000000000e+03) (43, -1.50000000000000000000e+03) (44, -1.05472900390625000000e+03) (45, 1.50000000000000000000e+03) (46, -1.50000000000000000000e+03) (47, 1.25615173339843750000e+03) (48, -1.50000000000000000000e+03) (49, -1.50000000000000000000e+03) (50, -1.42559594726562500000e+03) (51, -1.50000000000000000000e+03) (52, -5.37155628204345703125e-01) (0, 1.49932678222656250000e+03) (1, -4.18264495849609375000e+02) (2, 1.50000000000000000000e+03) (3, 1.49881811523437500000e+03) (4, -1.96851104736328125000e+02) (5, 1.49916821289062500000e+03) (6, 1.50000000000000000000e+03) (7, -1.49949365234375000000e+03) (8, 1.50000000000000000000e+03) (9, 1.50000000000000000000e+03) (10, 1.45897900390625000000e+03) (11, 1.49932678222656250000e+03) (12, 1.50000000000000000000e+03) (13, 1.08539025878906250000e+03) (14, 1.49844824218750000000e+03) (15, 1.50000000000000000000e+03) (16, 1.50000000000000000000e+03) (17, 1.50000000000000000000e+03) (18, -1.50000000000000000000e+03) (19, 1.50000000000000000000e+03) (20, -2.01681503295898437500e+02) (21, -1.50000000000000000000e+03) (22, 1.50000000000000000000e+03) (23, 1.49916821289062500000e+03) (24, 1.50000000000000000000e+03) (25, 1.50000000000000000000e+03) (26, -1.50000000000000000000e+03) (27, 3.55654998779296875000e+02) (28, -1.50000000000000000000e+03) (29, -7.61249633789062500000e+02) (30, -1.08098083496093750000e+03) (31, -1.18819653320312500000e+03) (32, -1.50000000000000000000e+03) (33, 1.50000000000000000000e+03) (34, -1.50000000000000000000e+03) (35, -1.50000000000000000000e+03) (36, -1.50000000000000000000e+03) (37, -1.50000000000000000000e+03) (38, 1.49954223632812500000e+03) (39, -1.50000000000000000000e+03) (40, -1.50000000000000000000e+03) (41, -1.50000000000000000000e+03) (42, -1.50000000000000000000e+03) (43, -1.50000000000000000000e+03) (44, -1.05472290039062500000e+03) (45, 1.50000000000000000000e+03) (46, -1.50000000000000000000e+03) (47, 1.25614514160156250000e+03) (48, -1.50000000000000000000e+03) (49, -1.50000000000000000000e+03) (50, -1.42559594726562500000e+03) (51, -1.50000000000000000000e+03) (52, -5.44012606143951416016e-01) (0, 1.49932678222656250000e+03) (1, -4.18262237548828125000e+02) (2, 1.50000000000000000000e+03) (3, 1.49881811523437500000e+03) (4, -1.96847656250000000000e+02) (5, 1.49916821289062500000e+03) (6, 1.50000000000000000000e+03) (7, -1.49949365234375000000e+03) (8, 1.50000000000000000000e+03) (9, 1.50000000000000000000e+03) (10, 1.45897900390625000000e+03) (11, 1.49932678222656250000e+03) (12, 1.50000000000000000000e+03) (13, 1.08538073730468750000e+03) (14, 1.49844824218750000000e+03) (15, 1.50000000000000000000e+03) (16, 1.50000000000000000000e+03) (17, 1.50000000000000000000e+03) (18, -1.50000000000000000000e+03) (19, 1.50000000000000000000e+03) (20, -2.01674911499023437500e+02) (21, -1.50000000000000000000e+03) (22, 1.50000000000000000000e+03) (23, 1.49916821289062500000e+03) (24, 1.50000000000000000000e+03) (25, 1.50000000000000000000e+03) (26, -1.50000000000000000000e+03) (27, 3.55655426025390625000e+02) (28, -1.50000000000000000000e+03) (29, -7.61244873046875000000e+02) (30, -1.08098156738281250000e+03) (31, -1.18820239257812500000e+03) (32, -1.50000000000000000000e+03) (33, 1.50000000000000000000e+03) (34, -1.50000000000000000000e+03) (35, -1.50000000000000000000e+03) (36, -1.50000000000000000000e+03) (37, -1.50000000000000000000e+03) (38, 1.49954223632812500000e+03) (39, -1.50000000000000000000e+03) (40, -1.50000000000000000000e+03) (41, -1.50000000000000000000e+03) (42, -1.50000000000000000000e+03) (43, -1.50000000000000000000e+03) (44, -1.05472473144531250000e+03) (45, 1.50000000000000000000e+03) (46, -1.50000000000000000000e+03) (47, 1.25614770507812500000e+03) (48, -1.50000000000000000000e+03) (49, -1.50000000000000000000e+03) (50, -1.42559594726562500000e+03) (51, -1.50000000000000000000e+03) (52, -5.30614614486694335938e-01) (0, 1.49932678222656250000e+03) (1, -4.18268035888671875000e+02) (2, 1.50000000000000000000e+03) (3, 1.49881811523437500000e+03) (4, -1.96850860595703125000e+02) (5, 1.49916821289062500000e+03) (6, 1.50000000000000000000e+03) (7, -1.49949365234375000000e+03) (8, 1.50000000000000000000e+03) (9, 1.50000000000000000000e+03) (10, 1.45897900390625000000e+03) (11, 1.49932678222656250000e+03) (12, 1.50000000000000000000e+03) (13, 1.08538610839843750000e+03) (14, 1.49844824218750000000e+03) (15, 1.50000000000000000000e+03) (16, 1.50000000000000000000e+03) (17, 1.50000000000000000000e+03) (18, -1.50000000000000000000e+03) (19, 1.50000000000000000000e+03) (20, -2.01677597045898437500e+02) (21, -1.50000000000000000000e+03) (22, 1.50000000000000000000e+03) (23, 1.49916821289062500000e+03) (24, 1.50000000000000000000e+03) (25, 1.50000000000000000000e+03) (26, -1.50000000000000000000e+03) (27, 3.55652618408203125000e+02) (28, -1.50000000000000000000e+03) (29, -1.00158587646484375000e+03) (30, -1.08098132324218750000e+03) (31, -1.18820043945312500000e+03) (32, -1.50000000000000000000e+03) (33, 1.50000000000000000000e+03) (34, -1.50000000000000000000e+03) (35, -1.50000000000000000000e+03) (36, -1.50000000000000000000e+03) (37, -1.50000000000000000000e+03) (38, 1.49954223632812500000e+03) (39, -1.50000000000000000000e+03) (40, -1.50000000000000000000e+03) (41, -1.50000000000000000000e+03) (42, -1.50000000000000000000e+03) (43, -1.50000000000000000000e+03) (44, -1.05472290039062500000e+03) (45, 1.50000000000000000000e+03) (46, -1.50000000000000000000e+03) (47, 1.25614062500000000000e+03) (48, -1.50000000000000000000e+03) (49, -1.50000000000000000000e+03) (50, -1.42559594726562500000e+03) (51, -1.50000000000000000000e+03) (52, -5.32355368137359619141e-01) (0, 1.49932678222656250000e+03) (1, -4.18266387939453125000e+02) (2, 1.50000000000000000000e+03) (3, 1.49881811523437500000e+03) (4, -1.96851226806640625000e+02) (5, 1.49916821289062500000e+03) (6, 1.50000000000000000000e+03) (7, -1.49949365234375000000e+03) (8, 1.50000000000000000000e+03) (9, 1.50000000000000000000e+03) (10, 1.45897900390625000000e+03) (11, 1.49932678222656250000e+03) (12, 1.50000000000000000000e+03) (13, 1.08538403320312500000e+03) (14, 1.49844824218750000000e+03) (15, 1.50000000000000000000e+03) (16, 1.50000000000000000000e+03) (17, 1.50000000000000000000e+03) (18, -1.50000000000000000000e+03) (19, 1.50000000000000000000e+03) (20, -2.01680038452148437500e+02) (21, -1.50000000000000000000e+03) (22, 1.50000000000000000000e+03) (23, 1.49916821289062500000e+03) (24, 1.50000000000000000000e+03) (25, 1.50000000000000000000e+03) (26, -1.50000000000000000000e+03) (27, 3.55647125244140625000e+02) (28, -1.50000000000000000000e+03) (29, -1.00158099365234375000e+03) (30, -1.08097729492187500000e+03) (31, -1.18820654296875000000e+03) (32, -1.50000000000000000000e+03) (33, 1.50000000000000000000e+03) (34, -1.50000000000000000000e+03) (35, -1.50000000000000000000e+03) (36, -1.50000000000000000000e+03) (37, -1.50000000000000000000e+03) (38, 1.49954223632812500000e+03) (39, -1.50000000000000000000e+03) (40, -1.50000000000000000000e+03) (41, -1.50000000000000000000e+03) (42, -1.50000000000000000000e+03) (43, -1.50000000000000000000e+03) (44, -1.05471826171875000000e+03) (45, 1.50000000000000000000e+03) (46, -1.50000000000000000000e+03) (47, 1.25615051269531250000e+03) (48, -1.50000000000000000000e+03) (49, -1.50000000000000000000e+03) (50, -1.42559594726562500000e+03) (51, -1.50000000000000000000e+03) (52, -5.37514686584472656250e-01) (0, 1.49932678222656250000e+03) (1, -4.18266265869140625000e+02) (2, 1.50000000000000000000e+03) (3, 1.49881811523437500000e+03) (4, -1.96851104736328125000e+02) (5, 1.49916821289062500000e+03) (6, 1.50000000000000000000e+03) (7, -1.49949365234375000000e+03) (8, 1.50000000000000000000e+03) (9, 1.50000000000000000000e+03) (10, 1.45897900390625000000e+03) (11, 1.49932678222656250000e+03) (12, 1.50000000000000000000e+03) (13, 1.08538098144531250000e+03) (14, 1.49844824218750000000e+03) (15, 1.50000000000000000000e+03) (16, 1.50000000000000000000e+03) (17, 1.50000000000000000000e+03) (18, -1.50000000000000000000e+03) (19, 1.50000000000000000000e+03) (20, -2.01682357788085937500e+02) (21, -1.50000000000000000000e+03) (22, 1.50000000000000000000e+03) (23, 1.49916821289062500000e+03) (24, 1.50000000000000000000e+03) (25, 1.50000000000000000000e+03) (26, -1.50000000000000000000e+03) (27, 3.55646209716796875000e+02) (28, -1.50000000000000000000e+03) (29, -1.00157708740234375000e+03) (30, -1.32044714355468750000e+03) (31, -1.18820532226562500000e+03) (32, -1.50000000000000000000e+03) (33, 1.50000000000000000000e+03) (34, -1.50000000000000000000e+03) (35, -1.50000000000000000000e+03) (36, -1.50000000000000000000e+03) (37, -1.50000000000000000000e+03) (38, 1.49954223632812500000e+03) (39, -1.50000000000000000000e+03) (40, -1.50000000000000000000e+03) (41, -1.50000000000000000000e+03) (42, -1.50000000000000000000e+03) (43, -1.50000000000000000000e+03) (44, -1.05471667480468750000e+03) (45, 1.50000000000000000000e+03) (46, -1.50000000000000000000e+03) (47, 1.25614855957031250000e+03) (48, -1.50000000000000000000e+03) (49, -1.50000000000000000000e+03) (50, -1.42559594726562500000e+03) (51, -1.50000000000000000000e+03) (52, -5.52473962306976318359e-01) (0, 1.49932678222656250000e+03) (1, -4.18266693115234375000e+02) (2, 1.50000000000000000000e+03) (3, 1.49881811523437500000e+03) (4, -1.96854156494140625000e+02) (5, 1.49916821289062500000e+03) (6, 1.50000000000000000000e+03) (7, -1.49949365234375000000e+03) (8, 1.50000000000000000000e+03) (9, 1.50000000000000000000e+03) (10, 1.45897900390625000000e+03) (11, 1.49932678222656250000e+03) (12, 1.50000000000000000000e+03) (13, 1.08538903808593750000e+03) (14, 1.49844824218750000000e+03) (15, 1.50000000000000000000e+03) (16, 1.50000000000000000000e+03) (17, 1.50000000000000000000e+03) (18, -1.50000000000000000000e+03) (19, 1.50000000000000000000e+03) (20, -2.01670883178710937500e+02) (21, -1.50000000000000000000e+03) (22, 1.50000000000000000000e+03) (23, 1.49916821289062500000e+03) (24, 1.50000000000000000000e+03) (25, 1.50000000000000000000e+03) (26, -1.50000000000000000000e+03) (27, 3.55650604248046875000e+02) (28, -1.50000000000000000000e+03) (29, -1.00157818603515625000e+03) (30, -1.08097680664062500000e+03) (31, -1.18820605468750000000e+03) (32, -1.50000000000000000000e+03) (33, 1.50000000000000000000e+03) (34, -1.50000000000000000000e+03) (35, -1.50000000000000000000e+03) (36, -1.50000000000000000000e+03) (37, -1.50000000000000000000e+03) (38, 1.49954223632812500000e+03) (39, -1.50000000000000000000e+03) (40, -1.50000000000000000000e+03) (41, -1.50000000000000000000e+03) (42, -1.50000000000000000000e+03) (43, -1.50000000000000000000e+03) (44, -1.05471948242187500000e+03) (45, 1.50000000000000000000e+03) (46, -1.50000000000000000000e+03) (47, 1.25614221191406250000e+03) (48, -1.50000000000000000000e+03) (49, -1.50000000000000000000e+03) (50, -1.42559594726562500000e+03) (51, -1.50000000000000000000e+03) (52, -5.27882158756256103516e-01) (0, 1.49932678222656250000e+03) (1, -4.18273773193359375000e+02) (2, 1.50000000000000000000e+03) (3, 1.49881811523437500000e+03) (4, -1.96852722167968750000e+02) (5, 1.49916821289062500000e+03) (6, 1.50000000000000000000e+03) (7, -1.49949365234375000000e+03) (8, 1.50000000000000000000e+03) (9, 1.50000000000000000000e+03) (10, 1.45897900390625000000e+03) (11, 1.49932678222656250000e+03) (12, 1.50000000000000000000e+03) (13, 1.08538110351562500000e+03) (14, 1.49844824218750000000e+03) (15, 1.50000000000000000000e+03) (16, 1.50000000000000000000e+03) (17, 1.50000000000000000000e+03) (18, -1.50000000000000000000e+03) (19, 1.50000000000000000000e+03) (20, -2.01674057006835937500e+02) (21, -1.50000000000000000000e+03) (22, 1.50000000000000000000e+03) (23, 1.49916821289062500000e+03) (24, 1.50000000000000000000e+03) (25, 1.50000000000000000000e+03) (26, -1.50000000000000000000e+03) (27, 3.55657623291015625000e+02) (28, -1.50000000000000000000e+03) (29, -1.00157647705078125000e+03) (30, -1.08098461914062500000e+03) (31, -1.18820568847656250000e+03) (32, -1.50000000000000000000e+03) (33, 1.50000000000000000000e+03) (34, -1.50000000000000000000e+03) (35, -1.50000000000000000000e+03) (36, -1.50000000000000000000e+03) (37, -1.50000000000000000000e+03) (38, 1.49954223632812500000e+03) (39, -1.50000000000000000000e+03) (40, -1.50000000000000000000e+03) (41, -1.50000000000000000000e+03) (42, -1.50000000000000000000e+03) (43, -1.50000000000000000000e+03) (44, -1.05472021484375000000e+03) (45, 1.50000000000000000000e+03) (46, -1.50000000000000000000e+03) (47, 1.25614697265625000000e+03) (48, -1.50000000000000000000e+03) (49, -1.50000000000000000000e+03) (50, -1.42559594726562500000e+03) (51, -1.50000000000000000000e+03) (52, -5.31963348388671875000e-01) (0, 1.49932678222656250000e+03) (1, -4.18268951416015625000e+02) (2, 1.50000000000000000000e+03) (3, 1.49881811523437500000e+03) (4, -1.96853759765625000000e+02) (5, 1.49916821289062500000e+03) (6, 1.50000000000000000000e+03) (7, -1.49949365234375000000e+03) (8, 1.50000000000000000000e+03) (9, 1.50000000000000000000e+03) (10, 1.45897900390625000000e+03) (11, 1.49932678222656250000e+03) (12, 1.50000000000000000000e+03) (13, 1.08538391113281250000e+03) (14, 1.49844824218750000000e+03) (15, 1.50000000000000000000e+03) (16, 1.50000000000000000000e+03) (17, 1.50000000000000000000e+03) (18, -1.50000000000000000000e+03) (19, 1.50000000000000000000e+03) (20, -2.01678329467773437500e+02) (21, -1.50000000000000000000e+03) (22, 1.50000000000000000000e+03) (23, 1.49916821289062500000e+03) (24, 1.50000000000000000000e+03) (25, 1.50000000000000000000e+03) (26, -1.50000000000000000000e+03) (27, 3.55655059814453125000e+02) (28, -1.50000000000000000000e+03) (29, -1.00158563232421875000e+03) (30, -1.08097607421875000000e+03) (31, -1.18819909667968750000e+03) (32, -1.50000000000000000000e+03) (33, 1.50000000000000000000e+03) (34, -1.50000000000000000000e+03) (35, -1.50000000000000000000e+03) (36, -1.50000000000000000000e+03) (37, -1.50000000000000000000e+03) (38, 1.49954223632812500000e+03) (39, -1.50000000000000000000e+03) (40, -1.50000000000000000000e+03) (41, -1.50000000000000000000e+03) (42, -1.50000000000000000000e+03) (43, -1.50000000000000000000e+03) (44, -1.05471899414062500000e+03) (45, 1.50000000000000000000e+03) (46, -1.50000000000000000000e+03) (47, 1.25614697265625000000e+03) (48, -1.50000000000000000000e+03) (49, -1.50000000000000000000e+03) (50, -1.42559594726562500000e+03) (51, -1.50000000000000000000e+03) (52, -5.29579579830169677734e-01) (0, 1.49932678222656250000e+03) (1, -4.18269073486328125000e+02) (2, 1.50000000000000000000e+03) (3, 1.49881811523437500000e+03) (4, -1.96855316162109375000e+02) (5, 1.49916821289062500000e+03) (6, 1.50000000000000000000e+03) (7, -1.49949365234375000000e+03) (8, 1.50000000000000000000e+03) (9, 1.50000000000000000000e+03) (10, 1.45897900390625000000e+03) (11, 1.49932678222656250000e+03) (12, 1.50000000000000000000e+03) (13, 1.08538647460937500000e+03) (14, 1.49844824218750000000e+03) (15, 1.50000000000000000000e+03) (16, 1.50000000000000000000e+03) (17, 1.50000000000000000000e+03) (18, -1.50000000000000000000e+03) (19, 1.50000000000000000000e+03) (20, -2.01682235717773437500e+02) (21, -1.50000000000000000000e+03) (22, 1.50000000000000000000e+03) (23, 1.49916821289062500000e+03) (24, 1.50000000000000000000e+03) (25, 1.50000000000000000000e+03) (26, -1.50000000000000000000e+03) (27, 3.55648651123046875000e+02) (28, -1.50000000000000000000e+03) (29, -1.00157940673828125000e+03) (30, -1.08098828125000000000e+03) (31, -1.18819921875000000000e+03) (32, -1.50000000000000000000e+03) (33, 1.50000000000000000000e+03) (34, -1.50000000000000000000e+03) (35, -1.50000000000000000000e+03) (36, -1.50000000000000000000e+03) (37, -1.50000000000000000000e+03) (38, 1.49954223632812500000e+03) (39, -1.50000000000000000000e+03) (40, -1.50000000000000000000e+03) (41, -1.50000000000000000000e+03) (42, -1.50000000000000000000e+03) (43, -1.50000000000000000000e+03) (44, -1.05472387695312500000e+03) (45, 1.50000000000000000000e+03) (46, -1.50000000000000000000e+03) (47, 1.25615234375000000000e+03) (48, -1.50000000000000000000e+03) (49, -1.50000000000000000000e+03) (50, -1.42559594726562500000e+03) (51, -1.50000000000000000000e+03) (52, -5.46335220336914062500e-01) (0, 1.49932678222656250000e+03) (1, -4.18263397216796875000e+02) (2, 1.50000000000000000000e+03) (3, 1.49881811523437500000e+03) (4, -1.96852752685546875000e+02) (5, 1.49916821289062500000e+03) (6, 1.50000000000000000000e+03) (7, -1.49949365234375000000e+03) (8, 1.50000000000000000000e+03) (9, 1.50000000000000000000e+03) (10, 1.45897900390625000000e+03) (11, 1.49932678222656250000e+03) (12, 1.50000000000000000000e+03) (13, 1.08538562011718750000e+03) (14, 1.49844824218750000000e+03) (15, 1.50000000000000000000e+03) (16, 1.50000000000000000000e+03) (17, 1.50000000000000000000e+03) (18, -1.50000000000000000000e+03) (19, 1.50000000000000000000e+03) (20, -2.01672958374023437500e+02) (21, -1.50000000000000000000e+03) (22, 1.50000000000000000000e+03) (23, 1.49916821289062500000e+03) (24, 1.50000000000000000000e+03) (25, 1.50000000000000000000e+03) (26, -1.50000000000000000000e+03) (27, 3.55649139404296875000e+02) (28, -1.50000000000000000000e+03) (29, -7.61244506835937500000e+02) (30, -7.72070861816406250000e+02) (31, -8.79286193847656250000e+02) (32, -1.50000000000000000000e+03) (33, 1.50000000000000000000e+03) (34, -1.50000000000000000000e+03) (35, -1.50000000000000000000e+03) (36, -1.50000000000000000000e+03) (37, -1.50000000000000000000e+03) (38, 1.49954223632812500000e+03) (39, -1.50000000000000000000e+03) (40, -1.50000000000000000000e+03) (41, -1.50000000000000000000e+03) (42, -1.50000000000000000000e+03) (43, -1.50000000000000000000e+03) (44, -1.05472814941406250000e+03) (45, 1.50000000000000000000e+03) (46, -1.50000000000000000000e+03) (47, 1.25614916992187500000e+03) (48, -1.50000000000000000000e+03) (49, -1.50000000000000000000e+03) (50, -1.42559594726562500000e+03) (51, -1.50000000000000000000e+03) (52, -5.46161890029907226562e-01) (0, 1.49932678222656250000e+03) (1, -4.17770843505859375000e+02) (2, 1.50000000000000000000e+03) (3, 1.13874084472656250000e+03) (4, -1.98164550781250000000e+02) (5, 1.49916821289062500000e+03) (6, 1.50000000000000000000e+03) (7, -1.49949365234375000000e+03) (8, 1.50000000000000000000e+03) (9, 1.50000000000000000000e+03) (10, 1.42836206054687500000e+03) (11, 1.49932678222656250000e+03) (12, 1.50000000000000000000e+03) (13, 6.25634521484375000000e+02) (14, 1.49844824218750000000e+03) (15, 1.50000000000000000000e+03) (16, 1.50000000000000000000e+03) (17, 1.50000000000000000000e+03) (18, -1.50000000000000000000e+03) (19, 1.50000000000000000000e+03) (20, -8.65626220703125000000e+02) (21, -1.50000000000000000000e+03) (22, 1.50000000000000000000e+03) (23, 1.49916821289062500000e+03) (24, 1.50000000000000000000e+03) (25, 1.50000000000000000000e+03) (26, -1.50000000000000000000e+03) (27, 3.55846099853515625000e+02) (28, -1.50000000000000000000e+03) (29, -1.53836242675781250000e+02) (30, -4.64276306152343750000e+02) (31, -5.42195678710937500000e+02) (32, -1.50000000000000000000e+03) (33, 1.50000000000000000000e+03) (34, -1.50000000000000000000e+03) (35, -1.50000000000000000000e+03) (36, -1.50000000000000000000e+03) (37, -1.50000000000000000000e+03) (38, 1.49954223632812500000e+03) (39, -1.50000000000000000000e+03) (40, -1.50000000000000000000e+03) (41, -1.50000000000000000000e+03) (42, -1.50000000000000000000e+03) (43, -1.50000000000000000000e+03) (44, -1.08992968750000000000e+03) (45, 1.50000000000000000000e+03) (46, -1.50000000000000000000e+03) (47, 5.78757019042968750000e+02) (48, -1.50000000000000000000e+03) (49, -1.50000000000000000000e+03) (50, -1.42559594726562500000e+03) (51, -1.50000000000000000000e+03) (52, -1.45056709647178649902e-01) (0, 1.49932678222656250000e+03) (1, -4.18268157958984375000e+02) (2, 1.50000000000000000000e+03) (3, 1.49881811523437500000e+03) (4, -1.96851867675781250000e+02) (5, 1.49916821289062500000e+03) (6, 1.50000000000000000000e+03) (7, -1.49949365234375000000e+03) (8, 1.50000000000000000000e+03) (9, 1.50000000000000000000e+03) (10, 1.45897900390625000000e+03) (11, 1.49932678222656250000e+03) (12, 1.50000000000000000000e+03) (13, 1.08538830566406250000e+03) (14, 1.49844824218750000000e+03) (15, 1.50000000000000000000e+03) (16, 1.50000000000000000000e+03) (17, 1.50000000000000000000e+03) (18, -1.50000000000000000000e+03) (19, 1.50000000000000000000e+03) (20, -2.01677719116210937500e+02) (21, -1.50000000000000000000e+03) (22, 1.50000000000000000000e+03) (23, 1.49916821289062500000e+03) (24, 1.50000000000000000000e+03) (25, 1.50000000000000000000e+03) (26, -1.50000000000000000000e+03) (27, 3.55652740478515625000e+02) (28, -1.50000000000000000000e+03) (29, -4.51961761474609375000e+02) (30, -7.72064880371093750000e+02) (31, -8.79284484863281250000e+02) (32, -1.50000000000000000000e+03) (33, 1.50000000000000000000e+03) (34, -1.50000000000000000000e+03) (35, -1.50000000000000000000e+03) (36, -1.50000000000000000000e+03) (37, -1.50000000000000000000e+03) (38, 1.49954223632812500000e+03) (39, -1.50000000000000000000e+03) (40, -1.50000000000000000000e+03) (41, -1.50000000000000000000e+03) (42, -1.50000000000000000000e+03) (43, -1.50000000000000000000e+03) (44, -1.05471789550781250000e+03) (45, 1.50000000000000000000e+03) (46, -1.50000000000000000000e+03) (47, 1.25614270019531250000e+03) (48, -1.50000000000000000000e+03) (49, -1.50000000000000000000e+03) (50, -1.42559594726562500000e+03) (51, -1.50000000000000000000e+03) (52, -5.32965242862701416016e-01) (0, 1.49932678222656250000e+03) (1, -4.18265167236328125000e+02) (2, 1.50000000000000000000e+03) (3, 1.49881811523437500000e+03) (4, -1.96857452392578125000e+02) (5, 1.49916821289062500000e+03) (6, 1.50000000000000000000e+03) (7, -1.49949365234375000000e+03) (8, 1.50000000000000000000e+03) (9, 1.50000000000000000000e+03) (10, 1.45897900390625000000e+03) (11, 1.49932678222656250000e+03) (12, 1.50000000000000000000e+03) (13, 1.08539160156250000000e+03) (14, 1.49844824218750000000e+03) (15, 1.50000000000000000000e+03) (16, 1.50000000000000000000e+03) (17, 1.50000000000000000000e+03) (18, -1.50000000000000000000e+03) (19, 1.50000000000000000000e+03) (20, -2.01671859741210937500e+02) (21, -1.50000000000000000000e+03) (22, 1.50000000000000000000e+03) (23, 1.49916821289062500000e+03) (24, 1.50000000000000000000e+03) (25, 1.50000000000000000000e+03) (26, -1.50000000000000000000e+03) (27, 3.55649749755859375000e+02) (28, -1.50000000000000000000e+03) (29, -1.00158734130859375000e+03) (30, -1.08098242187500000000e+03) (31, -1.18820642089843750000e+03) (32, -1.50000000000000000000e+03) (33, 1.50000000000000000000e+03) (34, -1.50000000000000000000e+03) (35, -1.50000000000000000000e+03) (36, -1.50000000000000000000e+03) (37, -1.50000000000000000000e+03) (38, 1.49954223632812500000e+03) (39, -1.50000000000000000000e+03) (40, -1.50000000000000000000e+03) (41, -1.50000000000000000000e+03) (42, -1.50000000000000000000e+03) (43, -1.50000000000000000000e+03) (44, -1.05472412109375000000e+03) (45, 1.50000000000000000000e+03) (46, -1.50000000000000000000e+03) (47, 1.25615234375000000000e+03) (48, -1.50000000000000000000e+03) (49, -1.50000000000000000000e+03) (50, -1.42559594726562500000e+03) (51, -1.50000000000000000000e+03) (52, -5.45614957809448242188e-01) (0, 1.49932678222656250000e+03) (1, -4.18271026611328125000e+02) (2, 1.50000000000000000000e+03) (3, 1.49881811523437500000e+03) (4, -1.96849273681640625000e+02) (5, 1.49916821289062500000e+03) (6, 1.50000000000000000000e+03) (7, -1.49949365234375000000e+03) (8, 1.50000000000000000000e+03) (9, 1.50000000000000000000e+03) (10, 1.45897900390625000000e+03) (11, 1.49932678222656250000e+03) (12, 1.50000000000000000000e+03) (13, 1.08538659667968750000e+03) (14, 1.49844824218750000000e+03) (15, 1.50000000000000000000e+03) (16, 1.50000000000000000000e+03) (17, 1.50000000000000000000e+03) (18, -1.50000000000000000000e+03) (19, 1.50000000000000000000e+03) (20, -2.01678207397460937500e+02) (21, -1.50000000000000000000e+03) (22, 1.50000000000000000000e+03) (23, 1.49916821289062500000e+03) (24, 1.50000000000000000000e+03) (25, 1.50000000000000000000e+03) (26, -1.50000000000000000000e+03) (27, 3.55647796630859375000e+02) (28, -1.50000000000000000000e+03) (29, -1.00157916259765625000e+03) (30, -1.08098168945312500000e+03) (31, -1.18820642089843750000e+03) (32, -1.50000000000000000000e+03) (33, 1.50000000000000000000e+03) (34, -1.50000000000000000000e+03) (35, -1.50000000000000000000e+03) (36, -1.50000000000000000000e+03) (37, -1.50000000000000000000e+03) (38, 1.49954223632812500000e+03) (39, -1.50000000000000000000e+03) (40, -1.50000000000000000000e+03) (41, -1.50000000000000000000e+03) (42, -1.50000000000000000000e+03) (43, -1.50000000000000000000e+03) (44, -1.05472607421875000000e+03) (45, 1.50000000000000000000e+03) (46, -1.50000000000000000000e+03) (47, 1.25614416503906250000e+03) (48, -1.50000000000000000000e+03) (49, -1.50000000000000000000e+03) (50, -1.42559594726562500000e+03) (51, -1.50000000000000000000e+03) (52, -5.33071100711822509766e-01) (0, 1.49932678222656250000e+03) (1, -4.18269439697265625000e+02) (2, 1.50000000000000000000e+03) (3, 1.49881811523437500000e+03) (4, -1.90159423828125000000e+02) (5, 1.49916821289062500000e+03) (6, 1.50000000000000000000e+03) (7, -1.49949365234375000000e+03) (8, 1.50000000000000000000e+03) (9, 1.50000000000000000000e+03) (10, 1.45897900390625000000e+03) (11, 1.49932678222656250000e+03) (12, 1.50000000000000000000e+03) (13, 1.08539221191406250000e+03) (14, 1.49844824218750000000e+03) (15, 1.50000000000000000000e+03) (16, 1.50000000000000000000e+03) (17, 1.50000000000000000000e+03) (18, -1.50000000000000000000e+03) (19, 1.50000000000000000000e+03) (20, -2.01680892944335937500e+02) (21, -1.50000000000000000000e+03) (22, 1.50000000000000000000e+03) (23, 1.49916821289062500000e+03) (24, 1.50000000000000000000e+03) (25, 1.50000000000000000000e+03) (26, -1.50000000000000000000e+03) (27, 3.55730926513671875000e+02) (28, -1.50000000000000000000e+03) (29, -4.51969146728515625000e+02) (30, -7.72064514160156250000e+02) (31, -8.79286682128906250000e+02) (32, -1.50000000000000000000e+03) (33, 1.50000000000000000000e+03) (34, -1.50000000000000000000e+03) (35, -1.50000000000000000000e+03) (36, -1.50000000000000000000e+03) (37, -1.50000000000000000000e+03) (38, 1.49954223632812500000e+03) (39, -1.50000000000000000000e+03) (40, -1.50000000000000000000e+03) (41, -1.50000000000000000000e+03) (42, -1.50000000000000000000e+03) (43, -1.50000000000000000000e+03) (44, -1.05471789550781250000e+03) (45, 1.50000000000000000000e+03) (46, -1.50000000000000000000e+03) (47, 1.25614978027343750000e+03) (48, -1.50000000000000000000e+03) (49, -1.50000000000000000000e+03) (50, -1.42559594726562500000e+03) (51, -1.50000000000000000000e+03) (52, -1.25631555914878845215e-01) (0, 1.49932678222656250000e+03) (1, -4.18262664794921875000e+02) (2, 1.50000000000000000000e+03) (3, 1.49881811523437500000e+03) (4, -1.96848022460937500000e+02) (5, 1.49916821289062500000e+03) (6, 1.50000000000000000000e+03) (7, -1.49949365234375000000e+03) (8, 1.50000000000000000000e+03) (9, 1.50000000000000000000e+03) (10, 1.45897900390625000000e+03) (11, 1.49932678222656250000e+03) (12, 1.50000000000000000000e+03) (13, 1.08538940429687500000e+03) (14, 1.49844824218750000000e+03) (15, 1.50000000000000000000e+03) (16, 1.50000000000000000000e+03) (17, 1.50000000000000000000e+03) (18, -1.50000000000000000000e+03) (19, 1.50000000000000000000e+03) (20, -2.01675277709960937500e+02) (21, -1.50000000000000000000e+03) (22, 1.50000000000000000000e+03) (23, 1.49916821289062500000e+03) (24, 1.50000000000000000000e+03) (25, 1.50000000000000000000e+03) (26, -1.50000000000000000000e+03) (27, 3.55689300537109375000e+02) (28, -1.50000000000000000000e+03) (29, -7.61251708984375000000e+02) (30, -7.72063659667968750000e+02) (31, -8.79284606933593750000e+02) (32, -1.50000000000000000000e+03) (33, 1.50000000000000000000e+03) (34, -1.50000000000000000000e+03) (35, -1.50000000000000000000e+03) (36, -1.50000000000000000000e+03) (37, -1.50000000000000000000e+03) (38, 1.49954223632812500000e+03) (39, -1.50000000000000000000e+03) (40, -1.50000000000000000000e+03) (41, -1.50000000000000000000e+03) (42, -1.50000000000000000000e+03) (43, -1.50000000000000000000e+03) (44, -1.05472106933593750000e+03) (45, 1.50000000000000000000e+03) (46, -1.50000000000000000000e+03) (47, 1.25615063476562500000e+03) (48, -1.50000000000000000000e+03) (49, -1.50000000000000000000e+03) (50, -1.42559594726562500000e+03) (51, -1.50000000000000000000e+03) (52, -5.52687406539916992188e-01) (0, 1.49932678222656250000e+03) (1, -4.18270294189453125000e+02) (2, 1.50000000000000000000e+03) (3, 1.49881811523437500000e+03) (4, -1.96856353759765625000e+02) (5, 1.49916821289062500000e+03) (6, 1.50000000000000000000e+03) (7, -1.49949365234375000000e+03) (8, 1.50000000000000000000e+03) (9, 1.50000000000000000000e+03) (10, 1.45897900390625000000e+03) (11, 1.49932678222656250000e+03) (12, 1.50000000000000000000e+03) (13, 1.08538037109375000000e+03) (14, 1.49844824218750000000e+03) (15, 1.50000000000000000000e+03) (16, 1.50000000000000000000e+03) (17, 1.50000000000000000000e+03) (18, -1.50000000000000000000e+03) (19, 1.50000000000000000000e+03) (20, -2.01674911499023437500e+02) (21, -1.50000000000000000000e+03) (22, 1.50000000000000000000e+03) (23, 1.49916821289062500000e+03) (24, 1.50000000000000000000e+03) (25, 1.50000000000000000000e+03) (26, -1.50000000000000000000e+03) (27, 3.55646820068359375000e+02) (28, -1.50000000000000000000e+03) (29, -1.00157806396484375000e+03) (30, -1.32044494628906250000e+03) (31, -1.18819567871093750000e+03) (32, -1.50000000000000000000e+03) (33, 1.50000000000000000000e+03) (34, -1.50000000000000000000e+03) (35, -1.50000000000000000000e+03) (36, -1.50000000000000000000e+03) (37, -1.50000000000000000000e+03) (38, 1.49954223632812500000e+03) (39, -1.50000000000000000000e+03) (40, -1.50000000000000000000e+03) (41, -1.50000000000000000000e+03) (42, -1.50000000000000000000e+03) (43, -1.50000000000000000000e+03) (44, -1.05471777343750000000e+03) (45, 1.50000000000000000000e+03) (46, -1.50000000000000000000e+03) (47, 1.25614562988281250000e+03) (48, -1.50000000000000000000e+03) (49, -1.50000000000000000000e+03) (50, -1.42559594726562500000e+03) (51, -1.50000000000000000000e+03) (52, -5.31562209129333496094e-01) (0, 1.49932678222656250000e+03) (1, -4.18269805908203125000e+02) (2, 1.50000000000000000000e+03) (3, 1.49881811523437500000e+03) (4, -1.96853027343750000000e+02) (5, 1.49916821289062500000e+03) (6, 1.50000000000000000000e+03) (7, -1.49949365234375000000e+03) (8, 1.50000000000000000000e+03) (9, 1.50000000000000000000e+03) (10, 1.45897900390625000000e+03) (11, 1.49932678222656250000e+03) (12, 1.50000000000000000000e+03) (13, 1.08538537597656250000e+03) (14, 1.49844824218750000000e+03) (15, 1.50000000000000000000e+03) (16, 1.50000000000000000000e+03) (17, 1.50000000000000000000e+03) (18, -1.50000000000000000000e+03) (19, 1.50000000000000000000e+03) (20, -2.01678085327148437500e+02) (21, -1.50000000000000000000e+03) (22, 1.50000000000000000000e+03) (23, 1.49916821289062500000e+03) (24, 1.50000000000000000000e+03) (25, 1.50000000000000000000e+03) (26, -1.50000000000000000000e+03) (27, 3.55653289794921875000e+02) (28, -1.50000000000000000000e+03) (29, -1.00158416748046875000e+03) (30, -1.08098632812500000000e+03) (31, -1.18820458984375000000e+03) (32, -1.50000000000000000000e+03) (33, 1.50000000000000000000e+03) (34, -1.50000000000000000000e+03) (35, -1.50000000000000000000e+03) (36, -1.50000000000000000000e+03) (37, -1.50000000000000000000e+03) (38, 1.49954223632812500000e+03) (39, -1.50000000000000000000e+03) (40, -1.50000000000000000000e+03) (41, -1.50000000000000000000e+03) (42, -1.50000000000000000000e+03) (43, -1.50000000000000000000e+03) (44, -1.05472045898437500000e+03) (45, 1.50000000000000000000e+03) (46, -1.50000000000000000000e+03) (47, 1.25614392089843750000e+03) (48, -1.50000000000000000000e+03) (49, -1.50000000000000000000e+03) (50, -1.42559594726562500000e+03) (51, -1.50000000000000000000e+03) (52, -5.31886041164398193359e-01) (0, 1.49932678222656250000e+03) (1, -4.18265411376953125000e+02) (2, 1.50000000000000000000e+03) (3, 1.49881811523437500000e+03) (4, -1.96847015380859375000e+02) (5, 1.49916821289062500000e+03) (6, 1.50000000000000000000e+03) (7, -1.49949365234375000000e+03) (8, 1.50000000000000000000e+03) (9, 1.50000000000000000000e+03) (10, 1.45897900390625000000e+03) (11, 1.49932678222656250000e+03) (12, 1.50000000000000000000e+03) (13, 1.08538647460937500000e+03) (14, 1.49844824218750000000e+03) (15, 1.50000000000000000000e+03) (16, 1.50000000000000000000e+03) (17, 1.50000000000000000000e+03) (18, -1.50000000000000000000e+03) (19, 1.50000000000000000000e+03) (20, -2.01680648803710937500e+02) (21, -1.50000000000000000000e+03) (22, 1.50000000000000000000e+03) (23, 1.49916821289062500000e+03) (24, 1.50000000000000000000e+03) (25, 1.50000000000000000000e+03) (26, -1.50000000000000000000e+03) (27, 3.55654754638671875000e+02) (28, -1.50000000000000000000e+03) (29, -7.61248413085937500000e+02) (30, -1.08098242187500000000e+03) (31, -1.18819824218750000000e+03) (32, -1.50000000000000000000e+03) (33, 1.50000000000000000000e+03) (34, -1.50000000000000000000e+03) (35, -1.50000000000000000000e+03) (36, -1.50000000000000000000e+03) (37, -1.50000000000000000000e+03) (38, 1.49954223632812500000e+03) (39, -1.50000000000000000000e+03) (40, -1.50000000000000000000e+03) (41, -1.50000000000000000000e+03) (42, -1.50000000000000000000e+03) (43, -1.50000000000000000000e+03) (44, -1.05472839355468750000e+03) (45, 1.50000000000000000000e+03) (46, -1.50000000000000000000e+03) (47, 1.25614782714843750000e+03) (48, -1.50000000000000000000e+03) (49, -1.50000000000000000000e+03) (50, -1.42559594726562500000e+03) (51, -1.50000000000000000000e+03) (52, -5.49223184585571289062e-01) (53, 1.50000000000000000000e+03) (54, 1.50000000000000000000e+03) (55, 1.50000000000000000000e+03) (56, 1.50000000000000000000e+03) (57, 1.50000000000000000000e+03) (58, 1.50000000000000000000e+03) (59, 1.50000000000000000000e+03) (60, 1.50000000000000000000e+03) (61, 1.50000000000000000000e+03) (62, 1.50000000000000000000e+03) (63, 1.50000000000000000000e+03) (64, 1.50000000000000000000e+03) (65, 1.50000000000000000000e+03) (66, 1.50000000000000000000e+03) (67, 1.50000000000000000000e+03) (68, 1.50000000000000000000e+03) (69, 1.50000000000000000000e+03) (70, 1.50000000000000000000e+03) (71, 1.50000000000000000000e+03) (72, 1.50000000000000000000e+03) (73, -5.52242815494537353516e-01) 
