FANN_FLO_2.1
num_layers=3
learning_rate=0.700000
connection_rate=1.000000
network_type=0
learning_momentum=0.000000
training_algorithm=2
train_error_function=1
train_stop_function=1
cascade_output_change_fraction=0.010000
quickprop_decay=-0.000100
quickprop_mu=1.750000
rprop_increase_factor=1.200000
rprop_decrease_factor=0.500000
rprop_delta_min=0.000000
rprop_delta_max=50.000000
rprop_delta_zero=0.100000
cascade_output_stagnation_epochs=12
cascade_candidate_change_fraction=0.010000
cascade_candidate_stagnation_epochs=12
cascade_max_out_epochs=150
cascade_min_out_epochs=50
cascade_max_cand_epochs=150
cascade_min_cand_epochs=50
cascade_num_candidate_groups=2
bit_fail_limit=9.99999977648258209229e-03
cascade_candidate_limit=1.00000000000000000000e+03
cascade_weight_multiplier=4.00000005960464477539e-01
cascade_activation_functions_count=10
cascade_activation_functions=3 5 7 8 10 11 14 15 16 17 
cascade_activation_steepnesses_count=4
cascade_activation_steepnesses=2.50000000000000000000e-01 5.00000000000000000000e-01 7.50000000000000000000e-01 1.00000000000000000000e+00 
layer_sizes=53 21 2 
scale_included=0
neurons (num_inputs, activation_function, activation_steepness)=(0, 0, 0.00000000000000000000e+00) (0, 0, 0.00000000000000000000e+00) (0, 0, 0.00000000000000000000e+00) (0, 0, 0.00000000000000000000e+00) (0, 0, 0.00000000000000000000e+00) (0, 0, 0.00000000000000000000e+00) (0, 0, 0.00000000000000000000e+00) (0, 0, 0.00000000000000000000e+00) (0, 0, 0.00000000000000000000e+00) (0, 0, 0.00000000000000000000e+00) (0, 0, 0.00000000000000000000e+00) (0, 0, 0.00000000000000000000e+00) (0, 0, 0.00000000000000000000e+00) (0, 0, 0.00000000000000000000e+00) (0, 0, 0.00000000000000000000e+00) (0, 0, 0.00000000000000000000e+00) (0, 0, 0.00000000000000000000e+00) (0, 0, 0.00000000000000000000e+00) (0, 0, 0.00000000000000000000e+00) (0, 0, 0.00000000000000000000e+00) (0, 0, 0.00000000000000000000e+00) (0, 0, 0.00000000000000000000e+00) (0, 0, 0.00000000000000000000e+00) (0, 0, 0.00000000000000000000e+00) (0, 0, 0.00000000000000000000e+00) (0, 0, 0.00000000000000000000e+00) (0, 0, 0.00000000000000000000e+00) (0, 0, 0.00000000000000000000e+00) (0, 0, 0.00000000000000000000e+00) (0, 0, 0.00000000000000000000e+00) (0, 0, 0.00000000000000000000e+00) (0, 0, 0.00000000000000000000e+00) (0, 0, 0.00000000000000000000e+00) (0, 0, 0.00000000000000000000e+00) (0, 0, 0.00000000000000000000e+00) (0, 0, 0.00000000000000000000e+00) (0, 0, 0.00000000000000000000e+00) (0, 0, 0.00000000000000000000e+00) (0, 0, 0.00000000000000000000e+00) (0, 0, 0.00000000000000000000e+00) (0, 0, 0.00000000000000000000e+00) (0, 0, 0.00000000000000000000e+00) (0, 0, 0.00000000000000000000e+00) (0, 0, 0.00000000000000000000e+00) (0, 0, 0.00000000000000000000e+00) (0, 0, 0.00000000000000000000e+00) (0, 0, 0.00000000000000000000e+00) (0, 0, 0.00000000000000000000e+00) (0, 0, 0.00000000000000000000e+00) (0, 0, 0.00000000000000000000e+00) (0, 0, 0.00000000000000000000e+00) (0, 0, 0.00000000000000000000e+00) (0, 0, 0.00000000000000000000e+00) (53, 3, 1.00000000000000000000e+00) (53, 3, 1.00000000000000000000e+00) (53, 3, 1.00000000000000000000e+00) (53, 3, 1.00000000000000000000e+00) (53, 3, 1.00000000000000000000e+00) (53, 3, 1.00000000000000000000e+00) (53, 3, 1.00000000000000000000e+00) (53, 3, 1.00000000000000000000e+00) (53, 3, 1.00000000000000000000e+00) (53, 3, 1.00000000000000000000e+00) (53, 3, 1.00000000000000000000e+00) (53, 3, 1.00000000000000000000e+00) (53, 3, 1.00000000000000000000e+00) (53, 3, 1.00000000000000000000e+00) (53, 3, 1.00000000000000000000e+00) (53, 3, 1.00000000000000000000e+00) (53, 3, 1.00000000000000000000e+00) (53, 3, 1.00000000000000000000e+00) (53, 3, 1.00000000000000000000e+00) (53, 3, 1.00000000000000000000e+00) (0, 3, 1.00000000000000000000e+00) (21, 3, 1.00000000000000000000e+00) (0, 3, 1.00000000000000000000e+00) 
connections (connected_to_neuron, weight)=(0, -9.64004821777343750000e+01) (1, -1.49854843139648437500e+02) (2, -2.26955810546875000000e+02) (3, -1.49982604980468750000e+03) (4, -6.73072814941406250000e+02) (5, -1.35003381347656250000e+03) (6, -4.54611473083496093750e+01) (7, -7.37977294921875000000e+02) (8, 1.18337562561035156250e+02) (9, -1.03275556564331054688e+01) (10, -9.18957366943359375000e+01) (11, -2.27399887084960937500e+02) (12, -3.25411109924316406250e+01) (13, -1.93182163238525390625e+01) (14, -2.52106990814208984375e+01) (15, -2.10189361572265625000e+02) (16, -2.20244430541992187500e+02) (17, -9.39966735839843750000e+01) (18, -1.45418872070312500000e+03) (19, -2.10203811645507812500e+02) (20, -1.44632653808593750000e+03) (21, -3.32209136962890625000e+02) (22, -1.21763952636718750000e+03) (23, -1.12786633300781250000e+03) (24, 4.52840080261230468750e+01) (25, 2.85766143798828125000e+02) (26, -1.49999829101562500000e+03) (27, -6.36092414855957031250e+01) (28, -1.48490673828125000000e+03) (29, -1.47893469238281250000e+03) (30, -1.49890942382812500000e+03) (31, -1.49138232421875000000e+03) (32, -1.49058996582031250000e+03) (33, -3.89281768798828125000e+01) (34, -1.49694238281250000000e+03) (35, -1.49991699218750000000e+03) (36, -1.49147375488281250000e+03) (37, -1.48962268066406250000e+03) (38, -1.11860742187500000000e+03) (39, -1.50000000000000000000e+03) (40, -1.49892968750000000000e+03) (41, -1.50000000000000000000e+03) (42, -1.43866601562500000000e+03) (43, -1.49644287109375000000e+03) (44, -1.49893640136718750000e+03) (45, -1.20809606933593750000e+03) (46, -1.47769641113281250000e+03) (47, -2.27072952270507812500e+02) (48, -1.48108813476562500000e+03) (49, -1.50000000000000000000e+03) (50, -1.45364770507812500000e+03) (51, -1.49036816406250000000e+03) (52, -1.72603058815002441406e+00) (0, -9.64070892333984375000e+01) (1, -1.49853698730468750000e+02) (2, -2.26954437255859375000e+02) (3, -1.49982604980468750000e+03) (4, -6.73072570800781250000e+02) (5, -1.35004479980468750000e+03) (6, -4.54607124328613281250e+01) (7, -7.37966979980468750000e+02) (8, 1.18336585998535156250e+02) (9, -1.03214635848999023438e+01) (10, -9.18937988281250000000e+01) (11, -2.27404205322265625000e+02) (12, -3.25421676635742187500e+01) (13, -1.93163414001464843750e+01) (14, -2.52150859832763671875e+01) (15, -2.10195770263671875000e+02) (16, -2.20242645263671875000e+02) (17, -9.40040740966796875000e+01) (18, -1.45418872070312500000e+03) (19, -2.10204971313476562500e+02) (20, -1.44632653808593750000e+03) (21, -3.32208465576171875000e+02) (22, -1.21763720703125000000e+03) (23, -1.12786560058593750000e+03) (24, 4.52729606628417968750e+01) (25, 2.85765655517578125000e+02) (26, -1.49999829101562500000e+03) (27, -6.36074256896972656250e+01) (28, -1.48490673828125000000e+03) (29, -1.47893469238281250000e+03) (30, -1.49890942382812500000e+03) (31, -1.49138232421875000000e+03) (32, -1.49058996582031250000e+03) (33, -3.89215660095214843750e+01) (34, -1.49694238281250000000e+03) (35, -1.49991699218750000000e+03) (36, -1.49147375488281250000e+03) (37, -1.48962268066406250000e+03) (38, -1.11860729980468750000e+03) (39, -1.50000000000000000000e+03) (40, -1.49892968750000000000e+03) (41, -1.50000000000000000000e+03) (42, -1.43867468261718750000e+03) (43, -1.49644287109375000000e+03) (44, -1.49893640136718750000e+03) (45, -1.20809387207031250000e+03) (46, -1.47769641113281250000e+03) (47, -2.27076614379882812500e+02) (48, -1.48108813476562500000e+03) (49, -1.50000000000000000000e+03) (50, -1.45364770507812500000e+03) (51, -1.49036816406250000000e+03) (52, -1.71518504619598388672e+00) (0, -9.64013671875000000000e+01) (1, -1.49846008300781250000e+02) (2, -2.26948837280273437500e+02) (3, -1.49982604980468750000e+03) (4, -6.73072570800781250000e+02) (5, -1.35004406738281250000e+03) (6, -4.54510688781738281250e+01) (7, -3.07650604248046875000e+02) (8, 1.18343421936035156250e+02) (9, -1.03321218490600585938e+01) (10, -9.18901596069335937500e+01) (11, -2.27406082153320312500e+02) (12, -3.25339813232421875000e+01) (13, -1.93183383941650390625e+01) (14, -2.52185821533203125000e+01) (15, -2.10183868408203125000e+02) (16, -2.20242706298828125000e+02) (17, -9.40036926269531250000e+01) (18, -1.45418872070312500000e+03) (19, -2.10194320678710937500e+02) (20, -1.44632519531250000000e+03) (21, -3.32210601806640625000e+02) (22, -1.21764465332031250000e+03) (23, -1.12786291503906250000e+03) (24, 4.52841911315917968750e+01) (25, 2.85774688720703125000e+02) (26, -1.49999829101562500000e+03) (27, -6.36095542907714843750e+01) (28, -1.48490673828125000000e+03) (29, -1.47893469238281250000e+03) (30, -1.49890942382812500000e+03) (31, -1.49138232421875000000e+03) (32, -1.49058996582031250000e+03) (33, -3.89229011535644531250e+01) (34, -1.49694238281250000000e+03) (35, -1.49991699218750000000e+03) (36, -1.49147375488281250000e+03) (37, -1.48962268066406250000e+03) (38, -1.11860949707031250000e+03) (39, -1.50000000000000000000e+03) (40, -1.49892968750000000000e+03) (41, -1.50000000000000000000e+03) (42, -1.43867419433593750000e+03) (43, -1.49644287109375000000e+03) (44, -1.49893640136718750000e+03) (45, -1.20809265136718750000e+03) (46, -1.47769641113281250000e+03) (47, -2.27082885742187500000e+02) (48, -1.48108813476562500000e+03) (49, -1.50000000000000000000e+03) (50, -1.45364770507812500000e+03) (51, -1.49036816406250000000e+03) (52, -1.72134709358215332031e+00) (0, -9.63963088989257812500e+01) (1, -1.49854095458984375000e+02) (2, -2.26955032348632812500e+02) (3, -1.49982604980468750000e+03) (4, -6.73068786621093750000e+02) (5, -1.35004577636718750000e+03) (6, -4.54511299133300781250e+01) (7, -3.07645935058593750000e+02) (8, 1.18334327697753906250e+02) (9, -1.03285264968872070312e+01) (10, -9.18938598632812500000e+01) (11, -2.27404190063476562500e+02) (12, -3.25334472656250000000e+01) (13, -1.93166942596435546875e+01) (14, -2.52165222167968750000e+01) (15, -2.10191207885742187500e+02) (16, -2.20242660522460937500e+02) (17, -9.40014953613281250000e+01) (18, -1.45418872070312500000e+03) (19, -2.10195510864257812500e+02) (20, -1.44632788085937500000e+03) (21, -3.32211395263671875000e+02) (22, -1.21763427734375000000e+03) (23, -1.12786682128906250000e+03) (24, 4.52784690856933593750e+01) (25, 2.85769317626953125000e+02) (26, -1.49999829101562500000e+03) (27, -6.36025505065917968750e+01) (28, -1.48490673828125000000e+03) (29, -1.47893469238281250000e+03) (30, -1.49890942382812500000e+03) (31, -1.49138232421875000000e+03) (32, -1.49058996582031250000e+03) (33, -3.89164199829101562500e+01) (34, -1.49694238281250000000e+03) (35, -1.49991699218750000000e+03) (36, -1.49147375488281250000e+03) (37, -1.48962268066406250000e+03) (38, -1.11860949707031250000e+03) (39, -1.50000000000000000000e+03) (40, -1.49892968750000000000e+03) (41, -1.50000000000000000000e+03) (42, -1.43866894531250000000e+03) (43, -1.49644287109375000000e+03) (44, -1.49893640136718750000e+03) (45, -1.13910510253906250000e+03) (46, -1.47769641113281250000e+03) (47, -2.27083175659179687500e+02) (48, -1.48108813476562500000e+03) (49, -1.50000000000000000000e+03) (50, -1.45364770507812500000e+03) (51, -1.49036816406250000000e+03) (52, -1.71218264102935791016e+00) (0, -9.64070739746093750000e+01) (1, -1.49846801757812500000e+02) (2, -2.26949554443359375000e+02) (3, -1.49982604980468750000e+03) (4, -6.73071594238281250000e+02) (5, -1.35004602050781250000e+03) (6, -4.54501304626464843750e+01) (7, -3.07651214599609375000e+02) (8, 1.18339851379394531250e+02) (9, -1.03214464187622070312e+01) (10, -9.18896713256835937500e+01) (11, -2.27402954101562500000e+02) (12, -3.25407714843750000000e+01) (13, -1.93127555847167968750e+01) (14, -2.52173290252685546875e+01) (15, -2.10196365356445312500e+02) (16, -2.20234558105468750000e+02) (17, -9.40037155151367187500e+01) (18, -1.45418872070312500000e+03) (19, -2.10197952270507812500e+02) (20, -1.44632458496093750000e+03) (21, -3.32212432861328125000e+02) (22, -1.21764404296875000000e+03) (23, -1.12785900878906250000e+03) (24, 4.52854347229003906250e+01) (25, 2.85771087646484375000e+02) (26, -1.49999829101562500000e+03) (27, -6.36033668518066406250e+01) (28, -1.48490673828125000000e+03) (29, -1.47893469238281250000e+03) (30, -1.49890942382812500000e+03) (31, -1.49138232421875000000e+03) (32, -1.49058996582031250000e+03) (33, -3.89193725585937500000e+01) (34, -1.49694238281250000000e+03) (35, -1.49991699218750000000e+03) (36, -1.49147375488281250000e+03) (37, -1.48962268066406250000e+03) (38, -1.11860327148437500000e+03) (39, -1.50000000000000000000e+03) (40, -1.49892968750000000000e+03) (41, -1.50000000000000000000e+03) (42, -1.43866516113281250000e+03) (43, -1.49644287109375000000e+03) (44, -1.49893640136718750000e+03) (45, -1.13909643554687500000e+03) (46, -1.47769641113281250000e+03) (47, -2.27079360961914062500e+02) (48, -1.48108813476562500000e+03) (49, -1.50000000000000000000e+03) (50, -1.45364770507812500000e+03) (51, -1.49036816406250000000e+03) (52, -1.71798443794250488281e+00) (0, -9.63997268676757812500e+01) (1, -1.49847946166992187500e+02) (2, -2.26949645996093750000e+02) (3, -1.49982604980468750000e+03) (4, -6.73068054199218750000e+02) (5, -1.35003967285156250000e+03) (6, -4.54508552551269531250e+01) (7, -3.07648864746093750000e+02) (8, 1.18341896057128906250e+02) (9, -1.03305177688598632812e+01) (10, -9.18898315429687500000e+01) (11, -2.27395904541015625000e+02) (12, -3.25397377014160156250e+01) (13, -1.93108119964599609375e+01) (14, -2.52118167877197265625e+01) (15, -2.10192672729492187500e+02) (16, -2.20235336303710937500e+02) (17, -9.40067367553710937500e+01) (18, -1.45418872070312500000e+03) (19, -2.10193496704101562500e+02) (20, -1.44632910156250000000e+03) (21, -3.32213958740234375000e+02) (22, -1.21764025878906250000e+03) (23, -1.12786621093750000000e+03) (24, 4.52840232849121093750e+01) (25, 2.85767822265625000000e+02) (26, -1.49999829101562500000e+03) (27, -6.36080207824707031250e+01) (28, -1.48490673828125000000e+03) (29, -1.47893469238281250000e+03) (30, -1.49890942382812500000e+03) (31, -1.49138232421875000000e+03) (32, -1.49058996582031250000e+03) (33, -3.89235916137695312500e+01) (34, -1.49694238281250000000e+03) (35, -1.49991699218750000000e+03) (36, -1.49147375488281250000e+03) (37, -1.48962268066406250000e+03) (38, -1.11861096191406250000e+03) (39, -1.50000000000000000000e+03) (40, -1.49892968750000000000e+03) (41, -1.50000000000000000000e+03) (42, -1.43866943359375000000e+03) (43, -1.49644287109375000000e+03) (44, -1.49893640136718750000e+03) (45, -1.13910473632812500000e+03) (46, -1.47769641113281250000e+03) (47, -2.27073471069335937500e+02) (48, -1.48108813476562500000e+03) (49, -1.50000000000000000000e+03) (50, -1.45364770507812500000e+03) (51, -1.49036816406250000000e+03) (52, -1.72615933418273925781e+00) (0, -9.63975143432617187500e+01) (1, -1.49850769042968750000e+02) (2, -2.26954101562500000000e+02) (3, -1.49982604980468750000e+03) (4, -6.73073547363281250000e+02) (5, -1.35003857421875000000e+03) (6, -4.54587593078613281250e+01) (7, -3.07644714355468750000e+02) (8, 1.18339393615722656250e+02) (9, -1.03214044570922851562e+01) (10, -9.18982543945312500000e+01) (11, -2.27396362304687500000e+02) (12, -3.25330657958984375000e+01) (13, -1.93109073638916015625e+01) (14, -2.52179031372070312500e+01) (15, -2.10195648193359375000e+02) (16, -2.20235458374023437500e+02) (17, -9.40057373046875000000e+01) (18, -1.45418872070312500000e+03) (19, -2.10198226928710937500e+02) (20, -1.44633398437500000000e+03) (21, -3.32214904785156250000e+02) (22, -1.21763891601562500000e+03) (23, -1.12785607910156250000e+03) (24, 4.52794303894042968750e+01) (25, 2.85771118164062500000e+02) (26, -1.49999829101562500000e+03) (27, -6.36138114929199218750e+01) (28, -1.48490673828125000000e+03) (29, -1.47893469238281250000e+03) (30, -1.49890942382812500000e+03) (31, -1.49138232421875000000e+03) (32, -1.49058996582031250000e+03) (33, -3.89196853637695312500e+01) (34, -1.49694238281250000000e+03) (35, -1.49991699218750000000e+03) (36, -1.49147375488281250000e+03) (37, -1.48962268066406250000e+03) (38, -1.11860827636718750000e+03) (39, -1.50000000000000000000e+03) (40, -1.49892968750000000000e+03) (41, -1.50000000000000000000e+03) (42, -1.43866894531250000000e+03) (43, -1.49644287109375000000e+03) (44, -1.49893640136718750000e+03) (45, -1.20810034179687500000e+03) (46, -1.47769641113281250000e+03) (47, -2.27082672119140625000e+02) (48, -1.48108813476562500000e+03) (49, -1.50000000000000000000e+03) (50, -1.45364770507812500000e+03) (51, -1.49036816406250000000e+03) (52, -1.72406435012817382812e+00) (0, -3.95820655822753906250e+01) (1, -6.21443328857421875000e+01) (2, -9.39518280029296875000e+01) (3, -1.40004748535156250000e+03) (4, -2.79965942382812500000e+02) (5, -1.10555725097656250000e+03) (6, -1.81528530120849609375e+01) (7, -2.24557399749755859375e+01) (8, 5.07548332214355468750e+01) (9, -3.70157599449157714844e+00) (10, -3.78763999938964843750e+01) (11, -9.41573944091796875000e+01) (12, -3.22964324951171875000e+01) (13, -7.75123167037963867188e+00) (14, -1.01016979217529296875e+01) (15, -8.69693679809570312500e+01) (16, -9.11601638793945312500e+01) (17, -3.87481384277343750000e+01) (18, -1.45418872070312500000e+03) (19, -2.09951950073242187500e+02) (20, -1.20404150390625000000e+03) (21, -2.42715587615966796875e+01) (22, -9.77300231933593750000e+02) (23, -1.12770568847656250000e+03) (24, 1.94820899963378906250e+01) (25, 2.85856353759765625000e+02) (26, -9.85565429687500000000e+02) (27, -2.62158775329589843750e+01) (28, -1.48490673828125000000e+03) (29, -1.47893469238281250000e+03) (30, -7.27116455078125000000e+02) (31, -1.49138232421875000000e+03) (32, -1.49058996582031250000e+03) (33, -1.55709924697875976562e+01) (34, -1.49694238281250000000e+03) (35, -1.49991699218750000000e+03) (36, -1.49147375488281250000e+03) (37, -1.48962268066406250000e+03) (38, -6.12355834960937500000e+02) (39, -1.50000000000000000000e+03) (40, -1.49892968750000000000e+03) (41, -1.50000000000000000000e+03) (42, -4.25042022705078125000e+02) (43, -1.49644287109375000000e+03) (44, -1.49893640136718750000e+03) (45, -7.59135375976562500000e+02) (46, -1.47769641113281250000e+03) (47, -9.40193862915039062500e+01) (48, -1.48108813476562500000e+03) (49, -1.50000000000000000000e+03) (50, -1.45364770507812500000e+03) (51, -1.49036816406250000000e+03) (52, -4.40574973821640014648e-01) (0, -9.64048614501953125000e+01) (1, -1.49847137451171875000e+02) (2, -2.26952133178710937500e+02) (3, -1.49982604980468750000e+03) (4, -6.73064880371093750000e+02) (5, -1.35003820800781250000e+03) (6, -4.54581642150878906250e+01) (7, -3.07647888183593750000e+02) (8, 1.18332893371582031250e+02) (9, -1.03303251266479492188e+01) (10, -9.18892974853515625000e+01) (11, -2.27402053833007812500e+02) (12, -3.25439109802246093750e+01) (13, -1.93142070770263671875e+01) (14, -2.52137718200683593750e+01) (15, -2.10189788818359375000e+02) (16, -2.20244171142578125000e+02) (17, -9.40074920654296875000e+01) (18, -1.45418872070312500000e+03) (19, -2.10204330444335937500e+02) (20, -1.44632812500000000000e+03) (21, -3.32212585449218750000e+02) (22, -1.21763989257812500000e+03) (23, -1.12785778808593750000e+03) (24, 4.52758369445800781250e+01) (25, 2.85768432617187500000e+02) (26, -1.49999829101562500000e+03) (27, -6.36101493835449218750e+01) (28, -1.48490673828125000000e+03) (29, -1.47893469238281250000e+03) (30, -1.49890942382812500000e+03) (31, -1.49138232421875000000e+03) (32, -1.49058996582031250000e+03) (33, -3.89220275878906250000e+01) (34, -1.49694238281250000000e+03) (35, -1.49991699218750000000e+03) (36, -1.49147375488281250000e+03) (37, -1.48962268066406250000e+03) (38, -1.11860241699218750000e+03) (39, -1.50000000000000000000e+03) (40, -1.49892968750000000000e+03) (41, -1.50000000000000000000e+03) (42, -1.43866577148437500000e+03) (43, -1.49644287109375000000e+03) (44, -1.49893640136718750000e+03) (45, -1.20809912109375000000e+03) (46, -1.47769641113281250000e+03) (47, -2.27073379516601562500e+02) (48, -1.48108813476562500000e+03) (49, -1.50000000000000000000e+03) (50, -1.45364770507812500000e+03) (51, -1.49036816406250000000e+03) (52, -1.70977270603179931641e+00) (0, 7.56646275520324707031e-01) (1, 8.11586156487464904785e-02) (2, 7.62972831726074218750e-01) (3, 4.85820859670639038086e-01) (4, 4.69769686460494995117e-01) (5, 6.87979400157928466797e-01) (6, 1.24627602100372314453e+00) (7, -9.62589561939239501953e-01) (8, 2.32931351661682128906e+00) (9, 9.35913443565368652344e-01) (10, 4.05310571193695068359e-01) (11, 7.07101881504058837891e-01) (12, 1.62541615962982177734e+00) (13, 1.85765907168388366699e-01) (14, 3.78305613994598388672e-01) (15, 7.98326075077056884766e-01) (16, 7.65810847282409667969e-01) (17, 4.63181883096694946289e-01) (18, -8.93239676952362060547e-02) (19, 1.88558750152587890625e+01) (20, -2.55988743156194686890e-02) (21, -1.65244102478027343750e-01) (22, 4.90188568830490112305e-01) (23, 1.89314410090446472168e-01) (24, 1.28854918479919433594e+00) (25, 1.01195287704467773438e+01) (26, -5.93824088573455810547e-01) (27, 1.78253725171089172363e-01) (28, -6.08195126056671142578e-01) (29, -1.87477648258209228516e-01) (30, 1.43843933939933776855e-01) (31, 1.64108816534280776978e-02) (32, -1.05087852478027343750e+00) (33, 7.50323593616485595703e-01) (34, -7.64251708984375000000e+01) (35, -1.54600739479064941406e+00) (36, -1.32502210140228271484e+00) (37, -6.48335158824920654297e-01) (38, 2.32494011521339416504e-01) (39, -2.20845389366149902344e+00) (40, -1.98607191443443298340e-01) (41, -1.46655547618865966797e+00) (42, -1.39271187782287597656e+00) (43, -1.94174897670745849609e+00) (44, 1.01115681231021881104e-01) (45, 1.11985254287719726562e+00) (46, -2.06919521093368530273e-01) (47, 7.18740224838256835938e-01) (48, -9.08642113208770751953e-01) (49, -2.90774555206298828125e+01) (50, 1.12030088901519775391e-01) (51, -1.72469291687011718750e+01) (52, 1.60025641322135925293e-01) (0, -9.63959274291992187500e+01) (1, -1.49845046997070312500e+02) (2, -2.26948944091796875000e+02) (3, -1.49982604980468750000e+03) (4, -6.73075256347656250000e+02) (5, -1.35003552246093750000e+03) (6, -4.54497108459472656250e+01) (7, -3.07653015136718750000e+02) (8, 1.18337104797363281250e+02) (9, -1.03263006210327148438e+01) (10, -9.18938293457031250000e+01) (11, -2.27405212402343750000e+02) (12, -3.25386505126953125000e+01) (13, -1.93088665008544921875e+01) (14, -2.52131919860839843750e+01) (15, -2.10187377929687500000e+02) (16, -2.20236053466796875000e+02) (17, -9.40057296752929687500e+01) (18, -1.45418872070312500000e+03) (19, -2.10193923950195312500e+02) (20, -1.44632421875000000000e+03) (21, -3.32216156005859375000e+02) (22, -1.21763549804687500000e+03) (23, -1.12785961914062500000e+03) (24, 4.52788200378417968750e+01) (25, 2.85778320312500000000e+02) (26, -1.49999829101562500000e+03) (27, -6.36110267639160156250e+01) (28, -1.48490673828125000000e+03) (29, -1.47893469238281250000e+03) (30, -1.49890942382812500000e+03) (31, -1.49138232421875000000e+03) (32, -1.49058996582031250000e+03) (33, -3.89244651794433593750e+01) (34, -1.49694238281250000000e+03) (35, -1.49991699218750000000e+03) (36, -1.49147375488281250000e+03) (37, -1.48962268066406250000e+03) (38, -1.11861291503906250000e+03) (39, -1.50000000000000000000e+03) (40, -1.49892968750000000000e+03) (41, -1.50000000000000000000e+03) (42, -1.43866516113281250000e+03) (43, -1.49644287109375000000e+03) (44, -1.49893640136718750000e+03) (45, -1.13910034179687500000e+03) (46, -1.47769641113281250000e+03) (47, -2.27072525024414062500e+02) (48, -1.48108813476562500000e+03) (49, -1.50000000000000000000e+03) (50, -1.45364770507812500000e+03) (51, -1.49036816406250000000e+03) (52, -1.71858191490173339844e+00) (0, -9.63973617553710937500e+01) (1, -1.49852294921875000000e+02) (2, -2.26953475952148437500e+02) (3, -1.49982604980468750000e+03) (4, -6.73072570800781250000e+02) (5, -1.35004528808593750000e+03) (6, -4.54493827819824218750e+01) (7, -3.07645355224609375000e+02) (8, 1.18338111877441406250e+02) (9, -1.03293437957763671875e+01) (10, -9.18925247192382812500e+01) (11, -2.27403396606445312500e+02) (12, -3.25429000854492187500e+01) (13, -1.93124446868896484375e+01) (14, -2.52143573760986328125e+01) (15, -2.10196350097656250000e+02) (16, -2.20239959716796875000e+02) (17, -9.40049133300781250000e+01) (18, -1.45418872070312500000e+03) (19, -2.10203201293945312500e+02) (20, -1.44633569335937500000e+03) (21, -3.32219696044921875000e+02) (22, -1.21764538574218750000e+03) (23, -1.12785803222656250000e+03) (24, 4.52839927673339843750e+01) (25, 2.85769714355468750000e+02) (26, -1.49999829101562500000e+03) (27, -6.36073341369628906250e+01) (28, -1.48490673828125000000e+03) (29, -1.47893469238281250000e+03) (30, -1.49890942382812500000e+03) (31, -1.49138232421875000000e+03) (32, -1.49058996582031250000e+03) (33, -3.89259414672851562500e+01) (34, -1.49694238281250000000e+03) (35, -1.49991699218750000000e+03) (36, -1.49147375488281250000e+03) (37, -1.48962268066406250000e+03) (38, -1.11860070800781250000e+03) (39, -1.50000000000000000000e+03) (40, -1.49892968750000000000e+03) (41, -1.50000000000000000000e+03) (42, -1.43866784667968750000e+03) (43, -1.49644287109375000000e+03) (44, -1.49893640136718750000e+03) (45, -1.20809997558593750000e+03) (46, -1.47769641113281250000e+03) (47, -2.27071105957031250000e+02) (48, -1.48108813476562500000e+03) (49, -1.50000000000000000000e+03) (50, -1.45364770507812500000e+03) (51, -1.49036816406250000000e+03) (52, -1.72014153003692626953e+00) (0, -9.64047164916992187500e+01) (1, -1.49853668212890625000e+02) (2, -2.26945953369140625000e+02) (3, -1.49982604980468750000e+03) (4, -6.73070129394531250000e+02) (5, -1.35004260253906250000e+03) (6, -4.54594764709472656250e+01) (7, -7.37974792480468750000e+02) (8, 1.18335548400878906250e+02) (9, -1.03201112747192382812e+01) (10, -9.18923645019531250000e+01) (11, -2.27404434204101562500e+02) (12, -3.25408248901367187500e+01) (13, -1.93211975097656250000e+01) (14, -2.52194728851318359375e+01) (15, -2.10186889648437500000e+02) (16, -2.20242645263671875000e+02) (17, -9.40072631835937500000e+01) (18, -1.45418872070312500000e+03) (19, -2.10198684692382812500e+02) (20, -1.44632714843750000000e+03) (21, -3.32215118408203125000e+02) (22, -1.21763867187500000000e+03) (23, -1.12786767578125000000e+03) (24, 4.52831993103027343750e+01) (25, 2.85767791748046875000e+02) (26, -1.49999829101562500000e+03) (27, -6.36057548522949218750e+01) (28, -1.48490673828125000000e+03) (29, -1.47893469238281250000e+03) (30, -1.49890942382812500000e+03) (31, -1.49138232421875000000e+03) (32, -1.49058996582031250000e+03) (33, -3.89232482910156250000e+01) (34, -1.49694238281250000000e+03) (35, -1.49991699218750000000e+03) (36, -1.49147375488281250000e+03) (37, -1.48962268066406250000e+03) (38, -1.11861022949218750000e+03) (39, -1.50000000000000000000e+03) (40, -1.49892968750000000000e+03) (41, -1.50000000000000000000e+03) (42, -1.43867419433593750000e+03) (43, -1.49644287109375000000e+03) (44, -1.49893640136718750000e+03) (45, -1.20809497070312500000e+03) (46, -1.47769641113281250000e+03) (47, -2.27076217651367187500e+02) (48, -1.48108813476562500000e+03) (49, -1.50000000000000000000e+03) (50, -1.45364770507812500000e+03) (51, -1.49036816406250000000e+03) (52, -1.70850121974945068359e+00) (0, -9.64013977050781250000e+01) (1, -1.49851882934570312500e+02) (2, -2.26953842163085937500e+02) (3, -1.49982604980468750000e+03) (4, -6.73074157714843750000e+02) (5, -1.35003784179687500000e+03) (6, -4.54496879577636718750e+01) (7, -3.07644866943359375000e+02) (8, 1.18333869934082031250e+02) (9, -1.03219976425170898438e+01) (10, -9.18880310058593750000e+01) (11, -2.27405090332031250000e+02) (12, -3.25417823791503906250e+01) (13, -1.93211708068847656250e+01) (14, -2.52095813751220703125e+01) (15, -2.10185165405273437500e+02) (16, -2.20237899780273437500e+02) (17, -9.40055694580078125000e+01) (18, -1.45418872070312500000e+03) (19, -2.10199569702148437500e+02) (20, -1.44632946777343750000e+03) (21, -3.32208129882812500000e+02) (22, -1.21764648437500000000e+03) (23, -1.12786157226562500000e+03) (24, 4.52813301086425781250e+01) (25, 2.85773315429687500000e+02) (26, -1.49999829101562500000e+03) (27, -6.36066703796386718750e+01) (28, -1.48490673828125000000e+03) (29, -1.47893469238281250000e+03) (30, -1.49890942382812500000e+03) (31, -1.49138232421875000000e+03) (32, -1.49058996582031250000e+03) (33, -3.89214363098144531250e+01) (34, -1.49694238281250000000e+03) (35, -1.49991699218750000000e+03) (36, -1.49147375488281250000e+03) (37, -1.48962268066406250000e+03) (38, -1.11861315917968750000e+03) (39, -1.50000000000000000000e+03) (40, -1.49892968750000000000e+03) (41, -1.50000000000000000000e+03) (42, -1.43866479492187500000e+03) (43, -1.49644287109375000000e+03) (44, -1.49893640136718750000e+03) (45, -1.13910705566406250000e+03) (46, -1.47769641113281250000e+03) (47, -2.27071868896484375000e+02) (48, -1.48108813476562500000e+03) (49, -1.50000000000000000000e+03) (50, -1.45364770507812500000e+03) (51, -1.49036816406250000000e+03) (52, -1.72363388538360595703e+00) (0, -9.64000473022460937500e+01) (1, -1.49852233886718750000e+02) (2, -2.26949569702148437500e+02) (3, -1.49982604980468750000e+03) (4, -6.73064392089843750000e+02) (5, -1.35004089355468750000e+03) (6, -4.54595603942871093750e+01) (7, -7.37970886230468750000e+02) (8, 1.18330787658691406250e+02) (9, -1.03247461318969726562e+01) (10, -9.18968048095703125000e+01) (11, -2.27393539428710937500e+02) (12, -3.25394935607910156250e+01) (13, -1.93195953369140625000e+01) (14, -2.52124233245849609375e+01) (15, -2.10191802978515625000e+02) (16, -2.20234741210937500000e+02) (17, -9.39948577880859375000e+01) (18, -1.45418872070312500000e+03) (19, -2.10201705932617187500e+02) (20, -1.44633312988281250000e+03) (21, -3.32210998535156250000e+02) (22, -1.21764050292968750000e+03) (23, -1.12786413574218750000e+03) (24, 4.52844047546386718750e+01) (25, 2.85768829345703125000e+02) (26, -1.49999829101562500000e+03) (27, -6.36127510070800781250e+01) (28, -1.48490673828125000000e+03) (29, -1.47893469238281250000e+03) (30, -1.49890942382812500000e+03) (31, -1.49138232421875000000e+03) (32, -1.49058996582031250000e+03) (33, -3.89283828735351562500e+01) (34, -1.49694238281250000000e+03) (35, -1.49991699218750000000e+03) (36, -1.49147375488281250000e+03) (37, -1.48962268066406250000e+03) (38, -1.11860241699218750000e+03) (39, -1.50000000000000000000e+03) (40, -1.49892968750000000000e+03) (41, -1.50000000000000000000e+03) (42, -1.43867578125000000000e+03) (43, -1.49644287109375000000e+03) (44, -1.49893640136718750000e+03) (45, -1.20808874511718750000e+03) (46, -1.47769641113281250000e+03) (47, -2.27073684692382812500e+02) (48, -1.48108813476562500000e+03) (49, -1.50000000000000000000e+03) (50, -1.45364770507812500000e+03) (51, -1.49036816406250000000e+03) (52, -1.72768008708953857422e+00) (0, -9.64078674316406250000e+01) (1, -1.49845382690429687500e+02) (2, -2.26955215454101562500e+02) (3, -1.49982604980468750000e+03) (4, -6.73069274902343750000e+02) (5, -1.35003869628906250000e+03) (6, -4.54611701965332031250e+01) (7, -7.37965393066406250000e+02) (8, 1.18337348937988281250e+02) (9, -1.03201799392700195312e+01) (10, -9.18936462402343750000e+01) (11, -2.27393798828125000000e+02) (12, -3.25410881042480468750e+01) (13, -1.93211898803710937500e+01) (14, -2.52152462005615234375e+01) (15, -2.10194107055664062500e+02) (16, -2.20234664916992187500e+02) (17, -9.40063858032226562500e+01) (18, -1.45418872070312500000e+03) (19, -2.10199203491210937500e+02) (20, -1.44633300781250000000e+03) (21, -3.32211914062500000000e+02) (22, -1.21764648437500000000e+03) (23, -1.12786401367187500000e+03) (24, 4.52763481140136718750e+01) (25, 2.85774108886718750000e+02) (26, -1.49999829101562500000e+03) (27, -6.36133689880371093750e+01) (28, -1.48490673828125000000e+03) (29, -1.47893469238281250000e+03) (30, -1.49890942382812500000e+03) (31, -1.49138232421875000000e+03) (32, -1.49058996582031250000e+03) (33, -3.89217987060546875000e+01) (34, -1.49694238281250000000e+03) (35, -1.49991699218750000000e+03) (36, -1.49147375488281250000e+03) (37, -1.48962268066406250000e+03) (38, -1.11860815429687500000e+03) (39, -1.50000000000000000000e+03) (40, -1.49892968750000000000e+03) (41, -1.50000000000000000000e+03) (42, -1.43866479492187500000e+03) (43, -1.49644287109375000000e+03) (44, -1.49893640136718750000e+03) (45, -1.20809851074218750000e+03) (46, -1.47769641113281250000e+03) (47, -2.27080703735351562500e+02) (48, -1.48108813476562500000e+03) (49, -1.50000000000000000000e+03) (50, -1.45364770507812500000e+03) (51, -1.49036816406250000000e+03) (52, -1.72803556919097900391e+00) (0, -9.63972320556640625000e+01) (1, -1.49855514526367187500e+02) (2, -2.26955596923828125000e+02) (3, -1.49982604980468750000e+03) (4, -6.73068908691406250000e+02) (5, -1.35003564453125000000e+03) (6, -4.54488029479980468750e+01) (7, -3.07646209716796875000e+02) (8, 1.18343513488769531250e+02) (9, -1.03252630233764648438e+01) (10, -9.18870239257812500000e+01) (11, -2.27401473999023437500e+02) (12, -3.25435676574707031250e+01) (13, -1.93148078918457031250e+01) (14, -2.52188644409179687500e+01) (15, -2.10193481445312500000e+02) (16, -2.20236968994140625000e+02) (17, -9.39950637817382812500e+01) (18, -1.45418872070312500000e+03) (19, -2.10197921752929687500e+02) (20, -1.44633044433593750000e+03) (21, -3.32208496093750000000e+02) (22, -1.21763464355468750000e+03) (23, -1.12785876464843750000e+03) (24, 4.52787513732910156250e+01) (25, 2.85777954101562500000e+02) (26, -1.49999829101562500000e+03) (27, -6.36054496765136718750e+01) (28, -1.48490673828125000000e+03) (29, -1.47893469238281250000e+03) (30, -1.49890942382812500000e+03) (31, -1.49138232421875000000e+03) (32, -1.49058996582031250000e+03) (33, -3.89249000549316406250e+01) (34, -1.49694238281250000000e+03) (35, -1.49991699218750000000e+03) (36, -1.49147375488281250000e+03) (37, -1.48962268066406250000e+03) (38, -1.11860632324218750000e+03) (39, -1.50000000000000000000e+03) (40, -1.49892968750000000000e+03) (41, -1.50000000000000000000e+03) (42, -1.43866589355468750000e+03) (43, -1.49644287109375000000e+03) (44, -1.49893640136718750000e+03) (45, -1.13910205078125000000e+03) (46, -1.47769641113281250000e+03) (47, -2.27078659057617187500e+02) (48, -1.48108813476562500000e+03) (49, -1.50000000000000000000e+03) (50, -1.45364770507812500000e+03) (51, -1.49036816406250000000e+03) (52, -1.71073317527770996094e+00) (0, -9.64041137695312500000e+01) (1, -1.49847259521484375000e+02) (2, -2.26949432373046875000e+02) (3, -1.49982604980468750000e+03) (4, -6.73070129394531250000e+02) (5, -1.35003527832031250000e+03) (6, -4.54602012634277343750e+01) (7, -3.07645019531250000000e+02) (8, 1.18332801818847656250e+02) (9, -1.03296995162963867188e+01) (10, -9.18895568847656250000e+01) (11, -2.27398193359375000000e+02) (12, -3.25381240844726562500e+01) (13, -1.93192100524902343750e+01) (14, -2.52217197418212890625e+01) (15, -2.10191635131835937500e+02) (16, -2.20237457275390625000e+02) (17, -9.39978027343750000000e+01) (18, -1.45418872070312500000e+03) (19, -2.10201766967773437500e+02) (20, -1.44633312988281250000e+03) (21, -3.32210174560546875000e+02) (22, -1.21763720703125000000e+03) (23, -1.12785839843750000000e+03) (24, 4.52832527160644531250e+01) (25, 2.85774597167968750000e+02) (26, -1.49999829101562500000e+03) (27, -6.36024665832519531250e+01) (28, -1.48490673828125000000e+03) (29, -1.47893469238281250000e+03) (30, -1.49890942382812500000e+03) (31, -1.49138232421875000000e+03) (32, -1.49058996582031250000e+03) (33, -3.89227333068847656250e+01) (34, -1.49694238281250000000e+03) (35, -1.49991699218750000000e+03) (36, -1.49147375488281250000e+03) (37, -1.48962268066406250000e+03) (38, -1.11860913085937500000e+03) (39, -1.50000000000000000000e+03) (40, -1.49892968750000000000e+03) (41, -1.50000000000000000000e+03) (42, -1.43866418457031250000e+03) (43, -1.49644287109375000000e+03) (44, -1.49893640136718750000e+03) (45, -1.13910632324218750000e+03) (46, -1.47769641113281250000e+03) (47, -2.27073989868164062500e+02) (48, -1.48108813476562500000e+03) (49, -1.50000000000000000000e+03) (50, -1.45364770507812500000e+03) (51, -1.49036816406250000000e+03) (52, -1.70480346679687500000e+00) (0, -9.64026718139648437500e+01) (1, -1.49850616455078125000e+02) (2, -2.26951599121093750000e+02) (3, -1.49982604980468750000e+03) (4, -6.73075988769531250000e+02) (5, -1.35003503417968750000e+03) (6, -4.54592628479003906250e+01) (7, -3.07652343750000000000e+02) (8, 1.18334938049316406250e+02) (9, -1.03209810256958007812e+01) (10, -9.18878173828125000000e+01) (11, -2.27394027709960937500e+02) (12, -3.25444602966308593750e+01) (13, -1.93110141754150390625e+01) (14, -2.52148475646972656250e+01) (15, -2.10194503784179687500e+02) (16, -2.20240325927734375000e+02) (17, -9.39951324462890625000e+01) (18, -1.45418872070312500000e+03) (19, -2.10203262329101562500e+02) (20, -1.44633056640625000000e+03) (21, -3.32209106445312500000e+02) (22, -1.21764245605468750000e+03) (23, -1.12786169433593750000e+03) (24, 4.52781181335449218750e+01) (25, 2.85767242431640625000e+02) (26, -1.49999829101562500000e+03) (27, -6.36060218811035156250e+01) (28, -1.48490673828125000000e+03) (29, -1.47893469238281250000e+03) (30, -1.49890942382812500000e+03) (31, -1.49138232421875000000e+03) (32, -1.49058996582031250000e+03) (33, -3.89228706359863281250e+01) (34, -1.49694238281250000000e+03) (35, -1.49991699218750000000e+03) (36, -1.49147375488281250000e+03) (37, -1.48962268066406250000e+03) (38, -1.11860607910156250000e+03) (39, -1.50000000000000000000e+03) (40, -1.49892968750000000000e+03) (41, -1.50000000000000000000e+03) (42, -1.43867492675781250000e+03) (43, -1.49644287109375000000e+03) (44, -1.49893640136718750000e+03) (45, -1.20809106445312500000e+03) (46, -1.47769641113281250000e+03) (47, -2.27081298828125000000e+02) (48, -1.48108813476562500000e+03) (49, -1.50000000000000000000e+03) (50, -1.45364770507812500000e+03) (51, -1.49036816406250000000e+03) (52, -1.70768296718597412109e+00) (0, -9.64025955200195312500e+01) (1, -1.49851196289062500000e+02) (2, -2.26943267822265625000e+02) (3, -1.49982604980468750000e+03) (4, -6.73070129394531250000e+02) (5, -1.35003845214843750000e+03) (6, -4.54525718688964843750e+01) (7, -3.07655700683593750000e+02) (8, 1.18332740783691406250e+02) (9, -1.03236799240112304688e+01) (10, -9.18881912231445312500e+01) (11, -2.27396942138671875000e+02) (12, -3.25327911376953125000e+01) (13, -1.93139114379882812500e+01) (14, -2.52156505584716796875e+01) (15, -2.10188476562500000000e+02) (16, -2.20234466552734375000e+02) (17, -9.40017700195312500000e+01) (18, -1.45418872070312500000e+03) (19, -2.10198623657226562500e+02) (20, -1.44633190917968750000e+03) (21, -3.32213409423828125000e+02) (22, -1.21763928222656250000e+03) (23, -1.12786206054687500000e+03) (24, 4.52823829650878906250e+01) (25, 2.85776092529296875000e+02) (26, -1.49999829101562500000e+03) (27, -6.36058311462402343750e+01) (28, -1.48490673828125000000e+03) (29, -1.47893469238281250000e+03) (30, -1.49890942382812500000e+03) (31, -1.49138232421875000000e+03) (32, -1.49058996582031250000e+03) (33, -3.89255867004394531250e+01) (34, -1.49694238281250000000e+03) (35, -1.49991699218750000000e+03) (36, -1.49147375488281250000e+03) (37, -1.48962268066406250000e+03) (38, -1.11860559082031250000e+03) (39, -1.50000000000000000000e+03) (40, -1.49892968750000000000e+03) (41, -1.50000000000000000000e+03) (42, -1.43866784667968750000e+03) (43, -1.49644287109375000000e+03) (44, -1.49893640136718750000e+03) (45, -1.13909875488281250000e+03) (46, -1.47769641113281250000e+03) (47, -2.27073089599609375000e+02) (48, -1.48108813476562500000e+03) (49, -1.50000000000000000000e+03) (50, -1.45364770507812500000e+03) (51, -1.49036816406250000000e+03) (52, -1.71826994419097900391e+00) (53, 1.50000000000000000000e+03) (54, 1.50000000000000000000e+03) (55, 1.50000000000000000000e+03) (56, 1.50000000000000000000e+03) (57, 1.50000000000000000000e+03) (58, 1.50000000000000000000e+03) (59, 1.50000000000000000000e+03) (60, 1.50000000000000000000e+03) (61, 1.50000000000000000000e+03) (62, 1.50000000000000000000e+03) (63, 1.50000000000000000000e+03) (64, 1.50000000000000000000e+03) (65, 1.50000000000000000000e+03) (66, 1.50000000000000000000e+03) (67, 1.50000000000000000000e+03) (68, 1.50000000000000000000e+03) (69, 1.50000000000000000000e+03) (70, 1.50000000000000000000e+03) (71, 1.50000000000000000000e+03) (72, 1.50000000000000000000e+03) (73, -1.70917177200317382812e+00) 
